
\data\
ngram 1=8532
ngram 2=29770
ngram 3=5336

\1-grams:
-4.399769	+	-0.1652215
-1.172654	</s>
-99	<s>	-0.1350888
-3.182285	a	-0.1427253
-4.001829	aa	-0.2868134
-4.700799	aache	-0.1955525
-4.700799	aanze	-0.1954833
-4.700799	aazimio	-0.1694306
-4.700799	ababa	-0.1955006
-4.700799	abayo	-0.1880494
-4.700799	abc	-0.1955525
-4.700799	abdel	-0.1955525
-4.700799	abdul	-0.1955525
-4.700799	abedi	-0.1954746
-4.700799	abidjan	-0.1955525
-4.399769	abiria	-0.1940969
-4.223678	about	-0.1955092
-4.001829	abraham	-0.400967
-4.700799	abruzzo	-0.1653513
-4.700799	abu	-0.1955525
-4.001829	ac	-0.1643488
-3.855701	academy	-0.1830875
-4.223678	acceleration	-0.1797662
-4.700799	achmad	-0.1955525
-4.700799	achukue	-0.194756
-4.001829	acting	-0.2996711
-4.700799	active	-0.1955525
-4.700799	activities	-0.1653513
-4.223678	actor	-0.1952669
-3.855701	actors	-0.243921
-3.922648	ada	-0.6181359
-4.399769	addiction	-0.1872279
-4.700799	addis	-0.1955525
-4.700799	adimu	-0.1653513
-4.700799	adler	-0.1653513
-4.399769	administration	-0.16524
-4.223678	adolf	-0.3866054
-4.700799	adrian	-0.1946173
-4.700799	advancement	-0.1948513
-4.700799	adé	-0.195466
-4.700799	aende	-0.1954833
-4.399769	afadhali	-0.1875387
-4.223678	afghanistan	-0.165305
-4.399769	afisa	-0.1815593
-3.621618	africa	-0.1802885
-4.700799	african	-0.1955525
-4.700799	africanus	-0.1952323
-4.700799	africapix	-0.1653513
-2.908407	afrika	-0.4770885
-4.700799	afrikaans	-0.1653513
-4.700799	afro	-0.1954746
-4.700799	after	-0.1955438
-3.922648	afya	-0.279849
-4.399769	agapiti	-0.2174204
-4.700799	agency	-0.19544
-4.700799	agnes	-0.1955525
-4.700799	agnon	-0.1946173
-3.496679	agosti	-0.1946318
-4.700799	agricultural	-0.1955438
-4.700799	agriculture	-0.1955006
-4.700799	aguascalientes	-0.1653513
-4.700799	ahamie	-0.1953622
-4.399769	ahirisho	-0.1918171
-4.700799	ahiwezi	-0.1955525
-4.700799	ahmad	-0.1954487
-4.399769	ahmed	-0.1955438
-4.223678	aidha	-0.1945913
-2.77138	aina	-0.5703319
-4.700799	ainy	-0.1949466
-4.399769	air	-0.165342
-4.700799	aires	-0.1955265
-4.399769	aitwaye	-0.1955352
-4.223678	ajabu	-0.1636977
-4.700799	ajali	-0.1653513
-4.223678	ajenti	-0.2097715
-3.269435	ajili	-1.007648
-4.700799	ajri	-0.1653513
-4.700799	akaamua	-0.1954314
-4.399769	akaanza	-0.1955352
-4.700799	akabaki	-0.177115
-4.700799	akachaguliwa	-0.1946173
-4.700799	akachukuliwa	-0.177115
-4.700799	akademickie	-0.1955525
-4.399769	akaenda	-0.1948946
-4.700799	akafariki	-0.1942011
-4.700799	akahamia	-0.1952843
-4.700799	akajiandikisha	-0.1904015
-4.700799	akajifunza	-0.1939233
-4.700799	akajikuta	-0.1955525
-4.700799	akakusanya	-0.1951458
-4.700799	akalumbana	-0.177115
-4.700799	akamfukuza	-0.1955438
-4.700799	akamjibu	-0.1955438
-4.700799	akamwandikia	-0.1955525
-4.700799	akamwomba	-0.1954487
-4.700799	akamwuliza	-0.1952064
-4.399769	akaombwa	-0.1770969
-4.700799	akaona	-0.1952583
-4.399769	akaongeza	-0.2174204
-4.700799	akaongezewa	-0.1953102
-4.700799	akapata	-0.1955352
-4.700799	akapendekeza	-0.1955525
-4.223678	akarudi	-0.2088184
-4.700799	akataka	-0.1955525
-4.700799	akatokea	-0.1955525
-4.700799	akatumbuiza	-0.1876444
-4.700799	akatunga	-0.1953968
-4.001829	akawa	-0.2040762
-4.700799	akaweza	-0.1955525
-4.700799	akea	-0.1953449
-4.700799	akeabakteria	-0.1954487
-3.586855	akiba	-0.4019964
-4.700799	akibuni	-0.1955525
-4.700799	akichukua	-0.1953276
-4.700799	akifahamika	-0.1919654
-4.098739	akifanya	-0.3260906
-4.700799	akifunga	-0.1946173
-4.098739	akili	-0.1480273
-4.700799	akina	-0.1955438
-4.700799	akipiga	-0.1955006
-4.700799	akipitisha	-0.1955438
-4.700799	akisema	-0.1947387
-4.700799	akisomea	-0.1955092
-4.700799	akiumbwa	-0.1939841
-4.700799	akiunganisha	-0.1955265
-3.37858	akiwa	-0.4564258
-4.700799	akizichungulia	-0.1946173
-4.700799	akiziweka	-0.1955525
-4.700799	akonay	-0.1955525
-4.700799	aksu	-0.195466
-4.700799	aktika	-0.1876444
-4.001829	al	-0.1739238
-4.001829	ala	-0.2680047
-4.399769	alabama	-0.1879702
-3.855701	alama	-0.2412575
-4.700799	alamgir	-0.1955525
-4.001829	alan	-0.2041281
-4.399769	alaska	-0.1652864
-3.797709	albamu	-0.2292271
-3.922648	albert	-0.1526869
-4.700799	albrecht	-0.1955525
-4.223678	album	-0.1640698
-4.700799	albums	-0.1653513
-4.700799	alcide	-0.1954746
-4.700799	alda	-0.1955525
-4.700799	aldo	-0.1955525
-4.700799	aldrin	-0.1955352
-4.399769	alembert	-0.2162597
-4.700799	alex	-0.1955525
-4.098739	alexander	-0.1955006
-4.700799	alfonso	-0.1955006
-4.223678	alfred	-0.1955092
-4.399769	alfu	-0.1653328
-4.700799	alfven	-0.1946173
-4.700799	algae	-0.177115
-4.399769	algebra	-0.1872279
-4.700799	algeria	-0.1653513
-4.399769	algorithm	-0.1872279
-4.700799	alhali	-0.1955525
-4.700799	alhamisi	-0.1942705
-4.223678	ali	-0.1653328
-4.700799	aliamua	-0.1955525
-3.855701	aliandika	-0.1991495
-3.855701	alianza	-0.2661791
-4.223678	alianzisha	-0.191504
-4.700799	alibadilisha	-0.195466
-4.700799	alibatizwa	-0.1955352
-4.399769	alibuni	-0.1938886
-4.098739	alichaguliwa	-0.2025392
-4.700799	alichangia	-0.194626
-4.399769	alichapisha	-0.2173685
-4.700799	alichezea	-0.1955092
-4.700799	alichoongezea	-0.1955438
-4.399769	alieleza	-0.1946693
-4.223678	alienda	-0.209607
-4.700799	aliendelea	-0.177115
-4.700799	aliendeleza	-0.1951371
-4.399769	alifanya	-0.2167018
-4.700799	alifaulu	-0.1955438
-4.700799	alifika	-0.1946953
-4.700799	alifuatana	-0.1946173
-4.399769	alifundisha	-0.2159908
-4.700799	alifunga	-0.1955092
-4.700799	aligundua	-0.1694306
-4.399769	alihamia	-0.2173771
-4.700799	aliimba	-0.1904015
-4.700799	aliingiza	-0.1951891
-4.700799	alijifunza	-0.1954833
-4.700799	alijiona	-0.1954573
-4.700799	alijiunga	-0.177115
-4.700799	alikiacha	-0.1955525
-4.399769	alikubali	-0.2174117
-4.700799	alikufa	-0.1953449
-4.700799	alikuja	-0.1955525
-4.700799	alikulia	-0.1904015
-4.700799	alikuta	-0.1694306
-4.700799	alikutana	-0.177115
-3.098739	alikuwa	-0.2747703
-4.700799	alikuwako	-0.1942358
-4.399769	alikuwemo	-0.1989915
-4.399769	alikwenda	-0.195466
-4.700799	alilazimishwa	-0.1955525
-4.700799	alileta	-0.1954054
-4.700799	alimoeleza	-0.1952064
-4.700799	alimpa	-0.1955179
-4.700799	alimsaidia	-0.1953881
-4.700799	alimwandikisha	-0.1904015
-4.700799	alimwoa	-0.1955352
-4.700799	alinukuliwa	-0.1955525
-4.700799	aliokuwa	-0.1955265
-4.098739	aliona	-0.1689434
-4.098739	alionekana	-0.2019804
-4.399769	alionyesha	-0.2174031
-4.700799	aliotunga	-0.1955525
-4.700799	alioweza	-0.1955525
-3.746556	alipata	-0.1977779
-4.700799	alipelekwa	-0.1955525
-4.700799	alipenda	-0.194626
-4.223678	alipewa	-0.1913324
-4.399769	alipiga	-0.1953795
-4.223678	alipoanza	-0.2099445
-4.700799	alipochungulia	-0.1955352
-4.700799	alipokuwa	-0.177115
-4.700799	alipolizaliwa	-0.1904015
-4.700799	alipona	-0.177115
-4.700799	aliporudi	-0.1950938
-4.700799	alipoulizwa	-0.1953622
-4.700799	alipozaliwa	-0.1904015
-4.700799	alisaidia	-0.1954314
-4.700799	alishambuliwa	-0.1946173
-4.700799	alisikia	-0.1955265
-4.399769	alisoma	-0.2174204
-4.399769	alitengeneza	-0.194782
-4.399769	alitia	-0.2174031
-4.399769	alitoa	-0.1951544
-4.399769	alitumia	-0.1947127
-4.223678	alitunga	-0.1769796
-4.700799	aliuawa	-0.1653513
-4.700799	aliulizwa	-0.1919654
-4.700799	alivamia	-0.1953449
-4.700799	alivyokuwa	-0.1955265
-4.700799	alivyostahili	-0.1941577
-4.001829	aliwahi	-0.2114744
-4.700799	aliweza	-0.1955265
-4.700799	aliyasema	-0.195267
-4.399769	aliye	-0.1955438
-4.700799	aliyeanzisha	-0.1955092
-4.001829	aliyebuni	-0.1952843
-4.700799	aliyechangia	-0.194626
-4.700799	aliyefahamika	-0.1876444
-4.700799	aliyefariki	-0.1653513
-4.700799	aliyefuta	-0.1955092
-4.700799	aliyehisi	-0.1694306
-4.700799	aliyeishi	-0.1952064
-4.223678	aliyeitwa	-0.1875827
-4.700799	aliyekaribia	-0.1954227
-4.223678	aliyekuwa	-0.2099445
-4.399769	aliyemteua	-0.2174204
-4.700799	aliyemzaa	-0.1954746
-4.700799	aliyepelekea	-0.1653513
-4.700799	aliyepokea	-0.1944613
-4.700799	aliyeruhusiwa	-0.1955265
-4.700799	aliyerushwa	-0.177115
-4.700799	aliyesema	-0.1955352
-4.700799	aliyeshirikiana	-0.1954833
-4.700799	aliyeunda	-0.1952064
-4.399769	aliyeweza	-0.1955352
-4.700799	aliyoikataa	-0.1653513
-4.700799	aliyoitunga	-0.1953795
-4.700799	aliyomaliza	-0.1934369
-4.098739	alizaliwa	-0.1711266
-4.700799	alizianza	-0.177115
-4.700799	alizikwa	-0.1941143
-4.700799	alizimalizia	-0.1876444
-4.700799	alizisikia	-0.1946173
-4.700799	alizokusanya	-0.1954833
-4.700799	alizotunga	-0.1953795
-4.700799	alkan	-0.1954487
-4.223678	all	-0.3866054
-4.700799	allegri	-0.195466
-4.399769	allen	-0.1955438
-4.700799	allende	-0.1955179
-4.700799	alliweza	-0.1955006
-4.001829	aloi	-0.1552768
-4.399769	aloysia	-0.1954487
-4.700799	alpha	-0.1955525
-4.700799	alphege	-0.1954573
-4.700799	altai	-0.1653513
-4.700799	alternating	-0.1955438
-4.001829	alumini	-0.1557725
-4.700799	alva	-0.1955525
-4.700799	am	-0.1653513
-3.445526	ama	-0.141164
-4.700799	amabazo	-0.1955525
-3.855701	amadeus	-0.8411294
-3.700799	amani	-0.5180606
-4.700799	amateur	-0.1955525
-3.554671	ambacho	-0.2284942
-4.700799	ambaho	-0.1955438
-3.019558	ambako	-0.233032
-3.659406	ambalo	-0.1896862
-4.223678	ambamo	-0.1953016
-3.339071	ambao	-0.248048
-3.496679	ambapo	-0.2007029
-4.098739	ambavyo	-0.1986651
-4.700799	ambaya	-0.1880494
-3.659406	ambaye	-0.1873012
-2.984796	ambayo	-0.4999436
-3.238401	ambazo	-0.3981342
-4.098739	ambo	-0.3029268
-4.700799	amchukue	-0.1955352
-4.700799	ameapishwa	-0.1941577
-4.700799	amechaguliwa	-0.1946173
-4.700799	amecheza	-0.1919654
-4.700799	amedeo	-0.1955525
-4.700799	amejibadilishia	-0.195267
-4.700799	amejibalisha	-0.1955525
-4.700799	amekomaa	-0.177115
-4.700799	amekuwa	-0.1954573
-4.399769	ameolewa	-0.1989915
-4.700799	ameondoshwa	-0.1955525
-4.700799	ameonekana	-0.1904015
-4.700799	amepata	-0.1955092
-4.399769	amepewa	-0.2173598
-4.223678	america	-0.1572368
-4.223678	american	-0.209832
-3.320588	amerika	-0.5026265
-4.700799	amesifiwa	-0.1950592
-4.399769	ameteuliwa	-0.2160342
-4.700799	ametimiza	-0.1955179
-4.399769	ametoa	-0.2173685
-4.700799	amevaa	-0.1955352
-4.399769	amezaliwa	-0.1953448
-4.700799	amfanye	-0.1954833
-4.700799	amfibia	-0.1653513
-4.700799	amfundishe	-0.1955525
-4.098739	amin	-0.1757863
-4.700799	amini	-0.1934369
-4.399769	amino	-0.188023
-4.700799	amintore	-0.1955525
-4.700799	amnesty	-0.1954833
-4.700799	amon	-0.1954746
-4.700799	among	-0.1955265
-4.700799	ampas	-0.1876444
-4.399769	ampea	-0.1652864
-4.700799	amri	-0.177115
-4.700799	amur	-0.1954746
-4.223678	an	-0.1955179
-3.922648	ana	-0.1875651
-4.700799	anabar	-0.1653513
-4.700799	anachaguliwa	-0.1876444
-4.700799	anachukua	-0.1953276
-4.700799	anadyr	-0.1653513
-4.700799	anafahamika	-0.1942618
-4.700799	anafanya	-0.1955352
-4.700799	anaichezea	-0.1955179
-4.700799	anaishi	-0.1904015
-4.700799	anajulikana	-0.1919654
-4.700799	anakua	-0.1953795
-4.001829	analysis	-0.3706335
-4.700799	analytical	-0.1955006
-4.700799	anamlea	-0.1653513
-4.399769	anaombwa	-0.1652957
-4.700799	anapewa	-0.1955525
-4.399769	anapiga	-0.2167105
-4.399769	anapinga	-0.2170656
-4.700799	anapotafuta	-0.1954746
-4.700799	anasafiri	-0.1940101
-4.700799	anashirikiana	-0.1954833
-4.700799	anashughulikia	-0.1955438
-4.700799	anatambuliwa	-0.1919654
-4.700799	anatarajiwa	-0.1955352
-3.855701	anatomia	-0.1568424
-4.700799	anauawa	-0.177115
-4.700799	anaunganisha	-0.1955179
-4.700799	anavutika	-0.1876444
-4.700799	anavutwa	-0.177115
-4.700799	anavyoelekezwa	-0.177115
-4.399769	anavyoruka	-0.2174204
-3.797709	anaweza	-0.199316
-4.700799	anayeaminiwa	-0.1941577
-4.700799	anayeigiza	-0.193002
-4.399769	anayeimba	-0.1878117
-4.700799	anayejulikana	-0.1955525
-4.700799	anayekimbia	-0.194626
-4.700799	anayemlea	-0.1954833
-4.399769	anayetambua	-0.2174117
-4.223678	anayevuta	-0.3865881
-2.952611	and	-0.2120989
-3.922648	andika	-0.1829722
-4.700799	andiko	-0.195466
-4.700799	andre	-0.1955525
-4.223678	andrei	-0.3865448
-4.700799	andrew	-0.1955525
-4.700799	andrey	-0.1955525
-4.399769	andromeda	-0.194782
-4.399769	andré	-0.1955438
-4.223678	andu	-0.1640698
-4.700799	andy	-0.1955525
-3.132597	anga	-0.4757676
-3.182285	angahewa	-0.1771584
-3.855701	angalau	-0.1616433
-3.746556	angalia	-0.1952124
-3.010603	angani	-0.180309
-4.700799	angara	-0.1653513
-4.700799	angel	-0.1955525
-4.223678	angela	-0.1955352
-4.223678	angeles	-0.1951631
-4.700799	angelina	-0.1955525
-4.399769	anglikana	-0.1953708
-4.399769	angola	-0.1650731
-4.700799	animalia	-0.1653513
-4.399769	animation	-0.1872279
-4.700799	anita	-0.1653513
-4.399769	anithrasiti	-0.1572934
-4.700799	ankole	-0.1955525
-4.700799	ann	-0.1955179
-4.399769	anna	-0.1954919
-4.700799	annan	-0.1955525
-4.700799	annus	-0.1880494
-4.223678	antarktika	-0.2044687
-4.700799	anthony	-0.1955525
-4.700799	antigua	-0.177115
-4.223678	antoine	-0.1954314
-4.223678	antonio	-0.2099964
-4.399769	antony	-0.2173944
-4.098739	anwani	-0.1828946
-4.700799	anwar	-0.1955525
-4.399769	anyiro	-0.2151656
-4.700799	anzisha	-0.1954573
-4.700799	aol	-0.1955092
-4.700799	apparatus	-0.1955352
-3.445526	aprili	-0.1707131
-4.700799	arabidopsis	-0.1955525
-4.700799	arabskim	-0.1955525
-4.700799	arabu	-0.1653513
-4.700799	aragon	-0.1653513
-4.700799	arbaini	-0.177115
-4.700799	arber	-0.1946173
-4.700799	archduke	-0.1948513
-4.700799	archiveorg	-0.1653513
-3.132597	ardhi	-0.177436
-3.621618	ardhini	-0.1461536
-4.700799	ardi	-0.1904015
-4.223678	area	-0.2024843
-4.098739	argentina	-0.2999402
-4.700799	aridhini	-0.177115
-4.098739	arigoni	-0.4720279
-4.700799	arika	-0.1950505
-3.922648	aristotle	-0.2113054
-4.700799	arizona	-0.1880494
-4.700799	arkiolojia	-0.1653513
-4.700799	armenia	-0.1653513
-4.223678	armstrong	-0.1600068
-4.700799	arnold	-0.1955525
-4.700799	arobaini	-0.177115
-4.399769	arresters	-0.1950592
-4.700799	arrhenius	-0.1946173
-4.700799	arthur	-0.1955525
-4.399769	article	-0.1953102
-4.223678	articles	-0.1653328
-4.399769	artificial	-0.2174204
-4.223678	artists	-0.1955179
-3.797709	arts	-0.1810236
-3.797709	arusha	-0.1823191
-4.700799	arxivorg	-0.1955525
-4.399769	asante	-0.1568587
-4.001829	asha	-0.7739627
-4.700799	ashirikiana	-0.177115
-4.700799	ashton	-0.1954746
-3.399769	asia	-0.3810392
-4.399769	asidi	-0.2174204
-2.894619	asili	-0.4274078
-3.132597	asilia	-0.1175213
-3.132597	asilimia	-0.4627444
-3.621618	askofu	-0.4055961
-4.700799	aspirini	-0.1653513
-4.700799	assad	-0.1955438
-4.700799	assembly	-0.1653513
-4.700799	asser	-0.1955438
-4.223678	association	-0.1954054
-4.700799	asteoridi	-0.177115
-4.399769	aster	-0.2168664
-4.700799	asterodi	-0.1955525
-3.285825	asteroidi	-0.1274417
-4.700799	astral	-0.1955438
-4.700799	astrobiology	-0.1955438
-4.700799	astrobiolojia	-0.1947907
-3.700799	astronomia	-0.184663
-4.700799	astronomical	-0.1955092
-4.223678	asubuhi	-0.1763291
-3.700799	at	-0.198836
-4.700799	atakua	-0.177115
-4.700799	atakupangiya	-0.1954746
-4.700799	atakuwa	-0.1955525
-4.700799	atatürk	-0.1955006
-3.746556	athari	-0.2764331
-4.700799	athelstan	-0.1955525
-3.700799	athira	-0.3193332
-4.399769	atika	-0.2167105
-4.700799	atimuliwe	-0.1952929
-4.223678	atlantiki	-0.1749799
-4.700799	atmosphere	-0.1948513
-3.320588	atomi	-0.1570502
-4.001829	atomia	-0.1882354
-4.700799	atomu	-0.1955092
-4.399769	attack	-0.1872279
-4.700799	attractions	-0.1953362
-4.700799	atumike	-0.1876444
-4.399769	atunge	-0.187477
-2.230977	au	-0.08604997
-4.700799	august	-0.1653513
-4.700799	augusto	-0.1955525
-4.700799	aus	-0.1955525
-4.700799	ausgabe	-0.1955438
-3.855701	australia	-0.4654883
-4.700799	australian	-0.1954487
-3.302859	austria	-0.1660403
-4.700799	autengenesaji	-0.1815683
-4.399769	authority	-0.216953
-4.700799	autotrofu	-0.1951631
-4.399769	auxerre	-0.2173079
-4.399769	aviation	-0.1653328
-4.700799	avon	-0.1653513
-3.302859	awali	-0.1753498
-4.700799	awalia	-0.195215
-4.700799	awalijitoa	-0.1653513
-4.399769	awamu	-0.1913071
-3.797709	award	-0.1959197
-3.621618	awards	-0.2062709
-4.700799	ayajapata	-0.1952496
-4.700799	ayana	-0.1954746
-4.700799	ayn	-0.1955525
-4.700799	ayo	-0.1941056
-4.700799	azania	-0.1653513
-4.700799	azerbaijan	-0.1653513
-4.098739	azimio	-0.4685179
-4.700799	azteki	-0.177115
-3.238401	b	-0.371456
-4.399769	ba	-0.1955179
-2.874724	baada	-1.99511
-3.269435	baadaye	-0.2113521
-3.399769	baadhi	-0.7617406
-3.445526	baba	-0.425115
-4.700799	babe	-0.1955525
-4.700799	babeli	-0.1955525
-4.399769	babu	-0.1989915
-4.700799	baby	-0.1955525
-4.223678	bach	-0.1768802
-4.223678	bachelor	-0.1600068
-4.399769	backgammon	-0.1872279
-4.700799	bad	-0.1955525
-3.922648	badala	-0.6181359
-4.223678	badiliko	-0.2047314
-4.223678	badilisha	-0.2097801
-4.700799	badische	-0.1955525
-3.121015	bado	-0.2159428
-4.700799	badu	-0.1955352
-4.700799	baghala	-0.1955525
-4.700799	bahamas	-0.1653513
-3.010603	bahari	-0.3547189
-3.922648	baharini	-0.1686097
-4.700799	bahati	-0.1955438
-4.700799	bahrain	-0.1653513
-4.399769	baikal	-0.1652029
-3.659406	baina	-0.4685276
-4.001829	bainifu	-0.7689426
-4.700799	bainishi	-0.1904978
-4.700799	bainishwa	-0.1955525
-4.700799	baiolojia	-0.1694306
-4.700799	baisikeli	-0.1955006
-4.223678	baja	-0.3865708
-4.399769	bakama	-0.1872279
-4.098739	bakita	-0.453772
-4.399769	bakiza	-0.2173339
-3.586855	bakteria	-0.1987208
-4.700799	bala	-0.1918608
-4.700799	balehe	-0.1955438
-3.586855	bali	-0.194123
-4.700799	ball	-0.1653513
-4.399769	bamba	-0.1914418
-4.098739	ban	-0.4721836
-4.700799	band	-0.1653513
-4.399769	bandari	-0.1953275
-4.001829	bandia	-0.1511845
-4.399769	bangladesh	-0.1650731
-4.700799	bantu	-0.1955352
-4.700799	banzi	-0.1954573
-3.922648	bao	-0.2754074
-3.700799	baptist	-0.1952756
-4.001829	baptiste	-0.2128263
-4.700799	baptisti	-0.1880494
-4.001829	baptists	-0.1952929
-3.302859	bara	-0.2036004
-4.001829	barabara	-0.1724375
-4.700799	barabarani	-0.1955525
-3.797709	barafu	-0.2210385
-4.098739	barani	-0.1561584
-3.659406	baraza	-1.075481
-4.700799	barbados	-0.1653513
-4.700799	barbara	-0.1955525
-4.700799	barbuda	-0.1653513
-4.700799	bardeen	-0.1946173
-3.057346	baridi	-0.1529439
-4.700799	baroque	-0.1954573
-4.700799	barrels	-0.1955525
-4.700799	barry	-0.1955525
-4.700799	barua	-0.19544
-4.399769	baseball	-0.1872279
-4.700799	bashiri	-0.1904978
-4.700799	bashō	-0.1955438
-4.223678	basi	-0.1952583
-4.700799	basic	-0.1955092
-4.700799	basil	-0.1955525
-4.700799	basilika	-0.1918608
-4.700799	bati	-0.1955265
-4.700799	bauer	-0.1955265
-4.700799	bayana	-0.1694306
-4.700799	bayolojia	-0.1955525
-4.700799	bayongahewa	-0.195267
-4.223678	bbc	-0.1954746
-4.700799	bbl	-0.19544
-4.700799	bc	-0.1904015
-4.700799	beach	-0.1653513
-4.399769	beagle	-0.165342
-4.700799	bean	-0.1955092
-4.700799	beatboxing	-0.1876444
-4.700799	beatles	-0.1653513
-4.700799	beckett	-0.1653513
-4.700799	becoming	-0.1955179
-4.700799	becquerel	-0.1946173
-4.700799	bednorz	-0.1946173
-4.700799	bedřich	-0.1955525
-4.700799	bee	-0.1653513
-4.399769	beethoven	-0.165342
-4.700799	begin	-0.1955352
-4.700799	beginnings	-0.1948513
-3.621618	bei	-0.288883
-4.001829	beijing	-0.1435222
-4.700799	bel	-0.1955438
-4.399769	belize	-0.1872279
-4.399769	bell	-0.1649803
-4.700799	belt	-0.1653513
-4.700799	bembea	-0.1919654
-4.700799	ben	-0.1955525
-4.700799	benavente	-0.1946173
-4.700799	bendera	-0.1694306
-4.399769	bendi	-0.190384
-4.700799	benedict	-0.1955525
-4.700799	benedikto	-0.1955525
-4.700799	benin	-0.1653513
-4.700799	benitez	-0.1653513
-4.399769	benito	-0.2174204
-4.098739	benjamin	-0.3303764
-4.001829	benki	-0.3745948
-4.399769	benz	-0.1955352
-4.700799	beograd	-0.177115
-4.700799	berg	-0.1946173
-4.399769	berkeley	-0.1648318
-4.700799	berlioz	-0.1653513
-4.223678	bernard	-0.1955092
-4.700799	bernhard	-0.1955525
-4.700799	bertha	-0.1955179
-4.700799	bertrand	-0.1955438
-4.700799	beteri	-0.1950245
-4.700799	beveridge	-0.1954573
-4.700799	bg	-0.1955525
-4.700799	bhaktivedanta	-0.1653513
-4.223678	bhutan	-0.1652308
-3.586855	biashara	-0.2187439
-4.399769	bibi	-0.1744445
-4.700799	bibilia	-0.1950765
-4.700799	bible	-0.1955525
-4.223678	biblia	-0.1639024
-4.399769	bichi	-0.1952496
-4.700799	bidhaa	-0.1955525
-4.700799	bikira	-0.1955179
-4.700799	biko	-0.1954573
-3.121015	bila	-0.2300248
-4.001829	bilioni	-0.2805456
-4.223678	bill	-0.2099964
-4.700799	billy	-0.1955438
-4.700799	bimaana	-0.1880494
-3.223678	binadamu	-0.18042
-4.001829	binafsi	-0.1539509
-4.700799	bingwa	-0.1946173
-4.399769	binti	-0.1815504
-4.399769	biocode	-0.1955438
-4.700799	biofalaki	-0.1653513
-4.399769	biofizikia	-0.194782
-4.700799	biofueli	-0.1919654
-4.700799	biogesi	-0.1653513
-4.700799	biohabari	-0.1951285
-4.700799	biohisabati	-0.193002
-4.700799	biojiografia	-0.1954227
-3.922648	biokemia	-0.1508194
-4.700799	biokemikali	-0.1815683
-4.700799	biolijia	-0.1694306
-4.700799	biologia	-0.1653513
-4.700799	biological	-0.1955438
-4.700799	biologie	-0.1955525
-2.746556	biolojia	-0.4830256
-4.700799	biolojiaya	-0.1955179
-4.098739	biomasi	-0.1445837
-4.700799	biomekaniki	-0.1946173
-4.700799	biomolekiuli	-0.1653513
-4.399769	bios	-0.1949119
-4.399769	bioteknolojia	-0.165305
-4.700799	biotiba	-0.1947907
-4.700799	biouhandisi	-0.1947907
-4.700799	bird	-0.1653513
-4.399769	birmingham	-0.1955352
-4.700799	bisau	-0.1653513
-4.700799	bismarck	-0.1955525
-4.700799	bjørnson	-0.1946173
-4.700799	bjørnstjerne	-0.1955525
-3.855701	bk	-0.1690539
-4.700799	bla	-0.1955179
-4.223678	black	-0.1955265
-4.700799	blaine	-0.1955525
-4.700799	bleriot	-0.1653513
-4.223678	board	-0.1954919
-4.700799	boay	-0.1955525
-4.223678	bob	-0.2099878
-4.700799	body	-0.1694306
-4.223678	bofya	-0.194626
-4.700799	bohr	-0.1653513
-4.700799	boigny	-0.1955525
-4.700799	bojaxhiu	-0.1653513
-4.700799	bolivar	-0.1653513
-4.700799	bolivia	-0.1653513
-4.223678	boma	-0.1897007
-4.700799	bomba	-0.1653513
-4.399769	bomu	-0.1942097
-4.700799	bonde	-0.1918608
-4.700799	bone	-0.1955525
-4.001829	bonyeza	-0.194123
-4.700799	book	-0.1955525
-3.922648	books	-0.2503232
-4.399769	booksgooglecom	-0.1652957
-3.621618	bora	-0.2985415
-4.700799	borges	-0.1653513
-4.700799	boris	-0.1955525
-4.399769	born	-0.2164938
-3.621618	bos	-0.4422371
-4.223678	bosnia	-0.1915491
-3.922648	botania	-0.1880604
-4.223678	botswana	-0.1426731
-4.700799	bourguiba	-0.1955352
-4.399769	bovet	-0.2164938
-4.700799	bowie	-0.1955179
-4.700799	bowl	-0.1952843
-4.700799	boy	-0.1955525
-4.399769	boys	-0.2169877
-4.700799	boysphp	-0.1653513
-4.700799	bradford	-0.177115
-4.700799	bradman	-0.1653513
-4.700799	bragg	-0.1955525
-4.700799	brahmaputra	-0.177115
-4.700799	brancusi	-0.1653513
-4.700799	brandt	-0.1955438
-4.700799	braque	-0.1653513
-4.700799	brasilia	-0.1653513
-4.700799	bratislava	-0.1955179
-4.700799	braun	-0.1653513
-4.001829	brazil	-0.1820025
-4.700799	bread	-0.1653513
-4.399769	breathing	-0.1872279
-4.700799	brendan	-0.1955525
-4.700799	brennan	-0.1955525
-4.700799	bretagne	-0.1653513
-4.700799	breton	-0.1653513
-4.700799	brezhnev	-0.1653513
-4.700799	brian	-0.1955525
-4.700799	bridgman	-0.1946173
-4.223678	britain	-0.3861467
-3.621618	britania	-0.2199438
-4.098739	britannica	-0.1868475
-4.700799	british	-0.1955352
-4.700799	broadcasters	-0.1954746
-4.399769	bronzi	-0.1944006
-4.700799	brook	-0.1653513
-4.700799	brookings	-0.1955525
-4.700799	brosnan	-0.19544
-4.700799	brothers	-0.1653513
-4.700799	brown	-0.1653513
-4.399769	browser	-0.2172906
-4.399769	broz	-0.2173858
-4.700799	brueghel	-0.1955525
-4.700799	brunei	-0.1653513
-4.399769	brussels	-0.212278
-4.700799	brustein	-0.1955525
-4.700799	buchanan	-0.1952756
-4.700799	buckingham	-0.1955525
-4.700799	bud	-0.1955525
-4.700799	buenos	-0.1955525
-4.098739	buffon	-0.2099084
-4.098739	buganda	-0.1955265
-3.855701	buluu	-0.2409915
-3.554671	bunge	-0.7007187
-4.700799	bunting	-0.1653513
-4.700799	bunyoro	-0.1955525
-4.700799	burdach	-0.1955525
-4.223678	bure	-0.1870979
-4.700799	bureau	-0.1653513
-4.700799	buren	-0.1952756
-4.700799	burghausen	-0.1955525
-4.700799	burkina	-0.1955525
-4.399769	burma	-0.1645717
-4.700799	burton	-0.194626
-4.223678	burudani	-0.1766544
-3.922648	burundi	-0.3092309
-4.223678	bush	-0.1767628
-4.700799	buzz	-0.1955525
-4.399769	bwana	-0.1952237
-4.700799	bwawa	-0.1918608
-3.445526	by	-0.3332833
-4.700799	byron	-0.1955438
-3.554671	c	-0.2313012
-4.399769	ca	-0.2173252
-4.700799	cabo	-0.1955525
-4.700799	cachedtrue	-0.1955525
-4.700799	caenorhabditis	-0.1955525
-4.700799	cairo	-0.1955006
-4.700799	calhoun	-0.1955265
-3.855701	california	-0.1363355
-4.700799	calligraphy	-0.1653513
-4.700799	camargo	-0.1954919
-4.700799	cambodia	-0.1653513
-4.700799	cambridge	-0.1955438
-4.700799	camp	-0.1955525
-4.700799	campeche	-0.1653513
-4.700799	camus	-0.1653513
-4.001829	canada	-0.3707355
-4.700799	canetti	-0.1946173
-4.700799	canis	-0.1653513
-4.700799	cantorionorg	-0.1653513
-4.399769	capacitor	-0.1872279
-4.700799	cape	-0.1955525
-4.700799	carducci	-0.1946173
-4.700799	careers	-0.1953362
-4.700799	carey	-0.195466
-4.700799	caritas	-0.193002
-4.399769	carl	-0.1955352
-4.700799	carlo	-0.177115
-4.700799	carlos	-0.1955352
-4.700799	carlton	-0.1955265
-4.700799	carola	-0.1955525
-4.700799	carolina	-0.19544
-4.399769	carolus	-0.2174204
-4.700799	casablanca	-0.1955525
-4.700799	case	-0.1955525
-4.700799	casey	-0.1653513
-4.700799	casino	-0.1955525
-4.399769	castro	-0.1955092
-4.399769	category	-0.1572934
-4.700799	catus	-0.1653513
-4.399769	ccm	-0.1872279
-4.700799	cd	-0.1955525
-4.700799	cdv	-0.1953016
-4.700799	ceausescu	-0.1955438
-4.700799	cech	-0.1946173
-4.399769	cecil	-0.1955179
-4.700799	census	-0.1955525
-4.700799	cent	-0.1955525
-4.700799	centauri	-0.1953449
-4.700799	center	-0.19544
-4.399769	centre	-0.1955352
-4.399769	century	-0.195466
-4.098739	ceres	-0.1755952
-4.700799	ceylon	-0.1653513
-2.282498	cha	-0.2556285
-4.098739	chache	-0.1941316
-4.700799	chachu	-0.1955092
-4.700799	chadi	-0.1653513
-4.700799	chafu	-0.1946867
-4.223678	chaguo	-0.382931
-4.700799	chai	-0.1694306
-3.16932	chaji	-0.2191391
-3.37858	chake	-0.2940258
-4.098739	chakita	-0.1748518
-4.700799	chakufanya	-0.1653513
-3.700799	chakula	-0.1475438
-4.700799	challenge	-0.1954833
-3.422045	chama	-0.7451257
-4.700799	chamar	-0.1955525
-4.223678	chamber	-0.1797569
-4.700799	chamberlain	-0.1951285
-4.700799	champions	-0.1948513
-4.700799	chandrasekhara	-0.1955525
-4.700799	chanel	-0.1955352
-4.700799	changa	-0.1955352
-4.399769	changamani	-0.2095209
-4.700799	changamano	-0.1653513
-4.399769	changamoto	-0.1913071
-4.700799	changarawe	-0.1955525
-4.700799	chanjo	-0.1653513
-4.399769	chansela	-0.2034448
-3.855701	chanya	-0.1463116
-3.524708	chanzo	-0.6543781
-4.399769	chao	-0.1989915
-4.700799	chapa	-0.1876444
-4.700799	chaplin	-0.1653513
-4.700799	charity	-0.1955525
-3.586855	charles	-0.4293119
-4.700799	charlie	-0.1955525
-4.700799	charter	-0.1955525
-4.700799	che	-0.1955525
-4.700799	cheche	-0.1944613
-4.098739	chembe	-0.2032889
-4.399769	chembechembe	-0.2123743
-4.700799	chemchemi	-0.195241
-3.855701	chemistry	-0.8112744
-4.001829	chenye	-0.1948773
-3.746556	cheo	-0.4449433
-4.700799	chersky	-0.1653513
-4.700799	chester	-0.1955525
-4.399769	cheti	-0.2151656
-4.700799	cheusi	-0.1946953
-4.223678	chi	-0.1692008
-4.399769	chiang	-0.2174204
-4.700799	chiapas	-0.1653513
-4.700799	chibulunje	-0.1954573
-4.700799	chihuahua	-0.1653513
-4.700799	children	-0.1954054
-4.001829	chile	-0.2696584
-4.700799	chimborazo	-0.1952064
-4.700799	chimbuko	-0.1955179
-3.109734	china	-0.2425193
-2.993229	chini	-0.5398272
-4.700799	chiraghdin	-0.1955179
-4.399769	chloroplasti	-0.1878117
-4.098739	chochote	-0.1979249
-4.700799	choir	-0.1955525
-3.621618	chombo	-0.7683839
-4.700799	chomsky	-0.1653513
-4.700799	chopin	-0.1954573
-4.700799	choreographers	-0.1955438
-4.223678	chotara	-0.3862593
-4.700799	chote	-0.1932891
-4.098739	christian	-0.2063184
-4.700799	christina	-0.1955525
-4.700799	christine	-0.1955525
-4.399769	christopher	-0.1955438
-4.098739	chromosomu	-0.1558458
-4.700799	chrysostomus	-0.1955525
-4.700799	chuck	-0.19544
-4.399769	chui	-0.1643766
-4.700799	chukwu	-0.1653513
-3.422045	chuma	-0.2383862
-4.700799	chumapua	-0.1955352
-4.223678	chumba	-0.2077068
-4.700799	chumvi	-0.194652
-4.700799	chungu	-0.1955092
-3.621618	chuo	-1.272366
-4.399769	chupa	-0.2173339
-4.700799	chuquicamata	-0.1948253
-4.399769	church	-0.1955438
-4.700799	churches	-0.1948513
-4.399769	churchill	-0.1950505
-4.700799	cid	-0.1955525
-4.700799	circle	-0.1948513
-4.399769	circulatory	-0.2173166
-4.700799	circus	-0.1955352
-3.746556	city	-0.1653167
-4.399769	civilisations	-0.2174204
-4.700799	clarke	-0.1955352
-4.399769	classical	-0.2174031
-4.700799	claude	-0.1955525
-4.700799	clemente	-0.1653513
-4.700799	clemenza	-0.1955438
-4.700799	cleophas	-0.1955006
-4.399769	cleveland	-0.2171521
-4.399769	clinton	-0.195189
-4.700799	cm	-0.1955092
-4.700799	coahuila	-0.1653513
-4.700799	coast	-0.1653513
-4.700799	coca	-0.1955525
-4.399769	cohen	-0.2174204
-4.700799	cola	-0.1653513
-4.700799	colima	-0.1653513
-4.399769	collected	-0.1953881
-4.700799	collector	-0.1953795
-4.700799	colonial	-0.1950765
-4.700799	colored	-0.1955438
-4.700799	combustion	-0.1955525
-4.700799	comer	-0.1955525
-4.700799	commissioner	-0.19544
-4.399769	commons	-0.1744445
-4.399769	complex	-0.2173944
-4.700799	composition	-0.1653513
-4.700799	comprehensive	-0.1954833
-4.700799	comrie	-0.1955438
-4.399769	comte	-0.2173512
-4.700799	concertos	-0.1955352
-4.700799	concise	-0.1955179
-4.399769	conference	-0.1652586
-4.399769	confessions	-0.2167278
-4.098739	congo	-0.330385
-4.700799	connections	-0.1955525
-4.098739	conservation	-0.2167019
-4.700799	consolidation	-0.1955438
-4.223678	constanze	-0.195189
-4.700799	constatin	-0.1955525
-4.700799	consultants	-0.1954746
-4.700799	consumption	-0.1653513
-4.700799	contemporary	-0.1955438
-4.700799	control	-0.1955179
-4.399769	convention	-0.1955438
-4.700799	conversion	-0.1953362
-4.700799	cooper	-0.1953016
-4.700799	copperbelt	-0.195466
-4.700799	coppi	-0.1653513
-4.700799	cordero	-0.1653513
-4.700799	corman	-0.1653513
-4.700799	cornel	-0.1955438
-4.700799	cornwall	-0.193002
-4.399769	corporation	-0.1770969
-4.700799	corps	-0.1653513
-4.700799	costello	-0.1955525
-4.223678	council	-0.1796827
-4.399769	course	-0.1947387
-4.001829	court	-0.1818167
-4.700799	crane	-0.1653513
-4.700799	crater	-0.1954227
-4.700799	create	-0.194626
-4.700799	creeley	-0.1653513
-4.399769	cremer	-0.2173685
-4.700799	cross	-0.194626
-4.700799	cu	-0.1653513
-4.700799	cuba	-0.1653513
-4.098739	cultural	-0.2173598
-4.700799	culture	-0.1955525
-4.700799	cultures	-0.1950765
-4.700799	cummings	-0.1653513
-4.700799	cupri	-0.1919654
-4.399769	current	-0.1455456
-4.700799	curtis	-0.1955352
-4.399769	cuthbert	-0.1954314
-4.700799	czar	-0.1955525
-4.700799	czech	-0.1955525
-4.700799	czeslaw	-0.1955525
-4.700799	césar	-0.1955525
-4.700799	côte	-0.19544
-4.700799	cătălin	-0.1955525
-3.554671	d	-0.162143
-4.700799	daban	-0.1653513
-4.700799	dada	-0.1951458
-4.399769	dahlin	-0.2170656
-4.399769	daima	-0.1770788
-4.700799	dainamo	-0.1653513
-4.399769	daioksidi	-0.1951284
-3.855701	dakika	-0.1721645
-3.659406	daktari	-0.1360283
-4.399769	dalai	-0.2174117
-4.700799	dalen	-0.1946173
-4.700799	dalida	-0.1955525
-4.399769	dalili	-0.1923403
-4.700799	dalí	-0.1653513
-4.700799	damon	-0.19544
-4.098739	damu	-0.1476908
-4.700799	dan	-0.1955525
-4.223678	dana	-0.2099791
-4.700799	dance	-0.1653513
-4.700799	dancers	-0.1955525
-4.700799	dani	-0.1694306
-4.223678	daniel	-0.2099964
-4.700799	danio	-0.1955525
-4.223678	dansi	-0.191948
-4.399769	danubi	-0.1953535
-3.554671	dar	-1.17597
-4.399769	daraja	-0.1913071
-4.700799	daressalaam	-0.193002
-4.700799	dari	-0.1694306
-3.855701	darubini	-0.2479042
-3.422045	darwin	-0.1723039
-3.855701	data	-0.1436227
-4.223678	database	-0.1517375
-4.700799	date	-0.1955438
-4.700799	dau	-0.1955525
-4.001829	david	-0.1953968
-4.700799	davis	-0.1955525
-3.700799	dawa	-0.1613925
-4.700799	dawda	-0.1955525
-4.223678	day	-0.1814432
-4.001829	dc	-0.1454388
-3.700799	de	-0.1694724
-4.700799	deavers	-0.194626
-4.700799	deca	-0.1955352
-4.399769	deceleration	-0.1872279
-4.700799	december	-0.1955525
-4.700799	declan	-0.1955525
-4.700799	decline	-0.1653513
-4.700799	dee	-0.1653513
-4.700799	deeds	-0.194626
-4.700799	def	-0.1955438
-4.700799	defense	-0.1955438
-4.223678	dekamita	-0.2091392
-4.700799	dekamitadeca	-0.1955352
-4.700799	delano	-0.1955352
-4.399769	delhi	-0.16524
-4.700799	deluc	-0.1653513
-4.700799	dem	-0.1955525
-4.399769	demo	-0.1917212
-4.399769	democratic	-0.1955438
-4.700799	demografia	-0.1653513
-4.700799	demographics	-0.19544
-4.399769	demokrasia	-0.1953795
-4.700799	deng	-0.1955525
-4.399769	denis	-0.2174204
-4.399769	denmark	-0.1765551
-4.399769	dennis	-0.2174204
-4.700799	densiti	-0.1955525
-4.700799	denzel	-0.1955438
-4.399769	department	-0.2167278
-4.700799	depth	-0.1955092
-4.700799	der	-0.1955525
-3.797709	des	-0.2172906
-4.700799	descendents	-0.1948513
-4.700799	descriptions	-0.1950765
-3.47035	desemba	-0.1606433
-4.700799	designers	-0.1955438
-4.223678	desturi	-0.148592
-4.700799	deutsche	-0.1955525
-4.098739	development	-0.1645067
-4.700799	devices	-0.1950765
-4.399769	dhahiri	-0.1913071
-4.700799	dhaka	-0.1955438
-4.001829	dhana	-0.1761991
-4.700799	dharura	-0.1653513
-4.223678	dhati	-0.1934803
-3.554671	dhidi	-0.8511497
-4.700799	dhoruba	-0.19544
-4.700799	dhumuni	-0.1918608
-4.399769	di	-0.1954919
-4.700799	diakonia	-0.1955525
-4.399769	dialectic	-0.1872279
-4.700799	dialog	-0.1653513
-4.700799	diameter	-0.1880494
-4.700799	diana	-0.1954919
-4.700799	diane	-0.1955525
-4.700799	diani	-0.1955525
-4.700799	diaspora	-0.1955092
-4.399769	dictionnaire	-0.2174204
-4.399769	diderot	-0.2162597
-4.399769	die	-0.1955438
-4.700799	diego	-0.1955525
-4.700799	diels	-0.1946173
-4.700799	dieseli	-0.193002
-4.700799	dietrich	-0.19544
-4.399769	differential	-0.2174031
-4.700799	digestion	-0.1653513
-4.700799	digitisation	-0.1955438
-4.700799	digitized	-0.1955438
-4.399769	digrii	-0.2123743
-4.399769	dikteta	-0.1812019
-4.399769	dinawari	-0.212278
-3.445526	dini	-0.1420529
-4.700799	dinosauri	-0.1955179
-4.399769	diode	-0.1872279
-4.700799	diodi	-0.1653513
-3.855701	dioksidi	-0.1878103
-4.399769	dira	-0.1955265
-4.700799	direct	-0.1955438
-4.223678	directors	-0.179293
-3.922648	dirisha	-0.3552019
-4.399769	disaster	-0.1872279
-4.700799	discipline	-0.1953362
-4.700799	discussion	-0.1955438
-4.700799	disease	-0.1653513
-4.223678	diseli	-0.1889057
-4.700799	diskografia	-0.1653513
-4.700799	disney	-0.1955265
-4.700799	disorder	-0.1653513
-4.700799	distribution	-0.1955438
-4.700799	divertimenti	-0.177115
-4.399769	division	-0.1771059
-4.700799	divisiontaarafa	-0.1955438
-4.399769	dj	-0.2174031
-4.399769	dkt	-0.165305
-3.445526	dna	-0.1168259
-4.700799	documents	-0.1948513
-3.922648	dodoma	-0.1647283
-4.223678	dogo	-0.1901914
-4.700799	doha	-0.1653513
-3.524708	dola	-0.5926554
-4.399769	domestication	-0.1872279
-4.700799	domingo	-0.1653513
-4.700799	dominica	-0.1653513
-4.700799	dominika	-0.1653513
-4.399769	don	-0.2174204
-4.700799	donald	-0.1955525
-3.922648	donge	-0.1965028
-4.399769	doris	-0.1955179
-4.700799	dorothy	-0.1955525
-4.700799	dorrestein	-0.1954141
-4.098739	douglas	-0.1955265
-3.922648	dr	-0.2503881
-4.700799	drc	-0.1951111
-4.223678	dream	-0.3859215
-4.223678	drug	-0.1798033
-4.700799	drum	-0.1653513
-4.001829	duara	-0.1736362
-4.700799	duchamp	-0.1653513
-4.399769	duke	-0.1954054
-4.700799	dukenfield	-0.1653513
-4.700799	duma	-0.19544
-4.399769	dumifu	-0.1812287
-4.700799	dunani	-0.1949812
-2.504899	dunia	-0.4264453
-2.741757	duniani	-0.3694886
-4.700799	durango	-0.1653513
-3.554671	dutu	-0.1468438
-4.399769	dwight	-0.1954314
-4.223678	dylan	-0.1796734
-4.399769	dynasty	-0.1872279
-4.700799	dzhugdzhur	-0.1653513
-4.700799	dùn	-0.1955525
-3.700799	e	-0.218974
-4.700799	ea	-0.1653513
-4.098739	eacu	-0.1871387
-4.399769	early	-0.1954141
-4.399769	earth	-0.1955092
-4.399769	east	-0.16524
-4.700799	eccles	-0.1946173
-4.700799	echegaray	-0.1955525
-4.700799	eckhard	-0.1955525
-4.700799	economic	-0.1955525
-4.700799	ecosoceconomic	-0.1950765
-3.922648	ed	-0.1950678
-4.700799	eddy	-0.1955525
-4.700799	edelman	-0.1946173
-4.700799	edgar	-0.1955525
-3.855701	edinburgh	-0.1710634
-4.700799	edison	-0.1955179
-4.700799	edit	-0.1955525
-4.700799	edmonds	-0.1955525
-4.700799	edmund	-0.1955525
-4.700799	education	-0.1955525
-4.399769	educational	-0.2174117
-3.922648	edward	-0.1953362
-4.700799	edwards	-0.1955438
-4.399769	edwin	-0.1955438
-4.700799	ehhe	-0.1942705
-4.700799	eia	-0.1653513
-4.399769	eides	-0.1913071
-4.700799	eifel	-0.1955006
-4.700799	eigen	-0.1946173
-4.700799	einstein	-0.1653513
-4.700799	einthoven	-0.1946173
-3.855701	eire	-0.2732133
-4.700799	eisenhower	-0.1954746
-4.700799	eizaguirre	-0.1946173
-4.399769	ekari	-0.1652864
-4.399769	ekolojia	-0.1744445
-4.399769	ekuador	-0.1872279
-4.223678	el	-0.1955179
-4.700799	elaine	-0.1955265
-4.399769	electrical	-0.1955438
-4.399769	electromagnetic	-0.2174031
-4.223678	electronic	-0.2099532
-4.399769	electronics	-0.1872279
-4.700799	elegans	-0.1955525
-4.700799	elekezo	-0.1955438
-4.700799	elektoni	-0.1954746
-4.700799	elektrolisisi	-0.1653513
-4.399769	elektroliti	-0.1917299
-3.399769	elektroni	-0.1946209
-4.700799	elektroniki	-0.1653513
-3.320588	elementi	-0.2269046
-4.700799	elezea	-0.1955525
-3.302859	elezo	-0.2192576
-4.700799	elfriede	-0.1955525
-3.621618	elfu	-0.1387744
-4.700799	elgon	-0.1880494
-4.700799	elias	-0.1955525
-4.700799	elijah	-0.1955525
-3.285825	elimu	-0.4423628
-4.700799	eliot	-0.1653513
-4.700799	elisha	-0.1955438
-4.700799	ellison	-0.1955525
-4.700799	elmenti	-0.177115
-4.399769	elton	-0.1953448
-4.700799	eluard	-0.1653513
-4.399769	elvis	-0.1955438
-4.700799	elytis	-0.1946173
-4.399769	embriolojia	-0.194652
-4.700799	emiliano	-0.1955525
-4.700799	emily	-0.1950765
-4.700799	eminem	-0.1955179
-4.098739	emmy	-0.1971128
-4.399769	empire	-0.1872279
-4.700799	empty	-0.1955438
-4.700799	en	-0.1955525
-4.001829	encyclopedia	-0.3101407
-4.700799	encyclopædia	-0.1955265
-4.399769	encyclopédie	-0.2174204
-4.399769	endangered	-0.2174031
-4.700799	endelevu	-0.1955525
-4.399769	endocrine	-0.2173166
-4.700799	endokrini	-0.1955006
-2.901458	eneo	-0.639661
-4.098739	energy	-0.1760684
-4.700799	engaphite	-0.1880494
-4.700799	engine	-0.1653513
-4.399769	england	-0.1878205
-4.700799	english	-0.1955179
-4.399769	enkopings	-0.2174031
-4.399769	enköpings	-0.2174031
-4.223678	enrico	-0.3866054
-3.922648	ensiklopedia	-0.1832036
-4.700799	entertainment	-0.1955525
-4.700799	entführung	-0.1955525
-4.098739	entomolojia	-0.1762477
-4.700799	environment	-0.1955179
-4.700799	enwikipediaorg	-0.1955006
-4.098739	enzi	-0.2989184
-4.700799	epidemologia	-0.194574
-4.700799	episcopal	-0.1653513
-4.700799	epstein	-0.1653513
-4.098739	equation	-0.4420084
-4.700799	eratosthenes	-0.1954487
-4.700799	eritrea	-0.1653513
-4.700799	erlanger	-0.1946173
-4.700799	ernest	-0.1955525
-4.700799	ernesto	-0.1955525
-4.700799	ernst	-0.1946173
-4.001829	eropleni	-0.1720279
-4.399769	erwin	-0.1955438
-4.700799	erykah	-0.1955525
-3.554671	es	-1.17597
-4.700799	esa	-0.1955525
-4.399769	esk	-0.2174031
-4.001829	et	-0.2128782
-4.700799	etc	-0.1653513
-4.700799	ethanoli	-0.1955525
-3.855701	ethiopia	-0.2171078
-4.700799	etholoja	-0.1950419
-4.001829	etholojia	-0.1805936
-4.399769	eukariyoti	-0.1769525
-4.700799	eunice	-0.1653513
-4.700799	europa	-0.177115
-4.700799	evangelical	-0.1955525
-4.700799	evans	-0.1653513
-4.700799	everest	-0.1941143
-4.700799	every	-0.195241
-4.700799	everyone	-0.1953362
-4.700799	evidence	-0.19544
-4.399769	evolution	-0.1954314
-4.700799	evoluton	-0.1950765
-4.223678	executive	-0.1796456
-4.700799	exim	-0.1955525
-4.700799	exobiolojia	-0.1955525
-4.700799	exopaleontolojia	-0.177115
-4.700799	exosphere	-0.1880494
-4.700799	expanded	-0.1653513
-4.700799	explorer	-0.1904015
-4.700799	expulsion	-0.1954227
-4.700799	extensive	-0.1955352
-4.700799	exupéry	-0.1653513
-4.700799	eyadema	-0.1955438
-4.700799	ezra	-0.1955525
-4.223678	f	-0.1955265
-4.700799	fab	-0.1955525
-4.700799	fabisch	-0.1653513
-4.700799	facts	-0.1955352
-3.797709	faida	-0.4262821
-4.399769	faili	-0.1689618
-4.700799	fainali	-0.1653513
-4.399769	faith	-0.1950678
-4.700799	faithful	-0.1954746
-4.700799	faitopatholojia	-0.1947907
-4.223678	falme	-0.381568
-4.001829	falsafa	-0.2527149
-4.700799	famasia	-0.1653513
-4.700799	fame	-0.1653513
-3.496679	familia	-0.1383846
-4.700799	fanfani	-0.1954054
-4.700799	fao	-0.1955525
-4.700799	faq	-0.1653513
-4.700799	farah	-0.1653513
-4.700799	farasi	-0.177115
-4.700799	farr	-0.1955525
-4.700799	fasheni	-0.1653513
-4.700799	fashion	-0.1653513
-4.223678	fasi	-0.1932282
-3.223678	fasihi	-0.7788766
-4.700799	fasikebu	-0.1880494
-4.399769	fasili	-0.1913071
-4.700799	fasini	-0.193002
-4.700799	faso	-0.1653513
-4.700799	fausto	-0.1955525
-4.700799	favoured	-0.1955525
-4.001829	fc	-0.1741385
-4.700799	fe	-0.177115
-3.496679	februari	-0.197197
-4.223678	february	-0.1653235
-4.700799	federal	-0.1955438
-4.001829	fedha	-0.1815594
-4.223678	feleji	-0.1644138
-4.001829	felis	-0.3934633
-4.700799	felix	-0.1955438
-4.399769	feminism	-0.1872279
-4.700799	femtosekunde	-0.1955525
-4.700799	fenetiki	-0.177115
-4.700799	fenotaipu	-0.1694306
-4.700799	ferdinand	-0.1955525
-4.399769	feri	-0.1938191
-4.223678	fermi	-0.1788007
-4.700799	ferrum	-0.1880494
-4.700799	fesheni	-0.1653513
-4.700799	fever	-0.195215
-4.700799	fidel	-0.1955438
-4.700799	field	-0.1653513
-4.700799	fields	-0.1954746
-3.922648	fifa	-0.2784087
-4.700799	figaro	-0.1952064
-4.700799	fight	-0.1955352
-4.700799	fikra	-0.1904978
-3.195649	filamu	-0.3802479
-4.700799	file	-0.177115
-4.700799	filimbi	-0.1694306
-4.399769	film	-0.1950419
-4.700799	filmografia	-0.1653513
-4.399769	filojenetiki	-0.194782
-4.399769	filojeni	-0.193628
-4.700799	filojenia	-0.177115
-4.700799	fimbo	-0.1918608
-4.700799	finale	-0.177115
-4.700799	finsterwalde	-0.1955438
-4.399769	first	-0.1955352
-4.700799	fisi	-0.177115
-4.399769	fission	-0.1872279
-4.700799	five	-0.1955438
-3.109734	fizikia	-0.7374591
-3.399769	fiziolojia	-0.2739469
-4.399769	flamenco	-0.1872279
-4.700799	flanktaasisi	-0.1694306
-4.700799	flavor	-0.1955525
-4.700799	florence	-0.1653513
-4.700799	florey	-0.1653513
-4.399769	florida	-0.1455456
-4.700799	floyd	-0.1653513
-4.399769	flute	-0.1950245
-4.700799	fokafoka	-0.1955525
-4.399769	fomula	-0.193958
-4.399769	fonda	-0.1652215
-4.700799	food	-0.1950765
-4.700799	football	-0.1955352
-4.700799	footie	-0.1955006
-3.554671	for	-0.2004613
-4.700799	force	-0.1653513
-4.223678	ford	-0.1599115
-4.700799	foreign	-0.19544
-4.700799	fort	-0.1954746
-4.700799	forth	-0.1955092
-4.700799	fortunatus	-0.1955525
-4.399769	fosfori	-0.1913071
-4.098739	foundation	-0.1520668
-4.399769	fox	-0.1635953
-4.700799	franc	-0.1955525
-4.700799	frances	-0.1955352
-4.223678	francis	-0.1953622
-4.399769	francisco	-0.1955438
-4.700799	franck	-0.1946173
-4.700799	franco	-0.1955006
-4.700799	francois	-0.1955525
-4.098739	frank	-0.1944699
-4.223678	franklin	-0.1952323
-4.001829	franz	-0.1954141
-4.700799	freddie	-0.1955525
-4.399769	freddy	-0.1954573
-4.700799	frederick	-0.1955525
-4.399769	free	-0.1955352
-4.700799	freedom	-0.1955438
-4.700799	freeman	-0.1954141
-4.700799	frequency	-0.1653513
-4.399769	fresh	-0.1953622
-4.700799	freud	-0.1653513
-4.700799	freyberg	-0.1653513
-4.700799	frida	-0.1955525
-4.700799	friederich	-0.1955525
-4.700799	friedman	-0.1653513
-4.399769	friedrich	-0.1955352
-4.399769	friji	-0.2174031
-4.700799	fritz	-0.1955525
-3.496679	from	-0.3738708
-4.700799	frédéric	-0.1955525
-4.700799	frăţilă	-0.1954573
-3.06733	fueli	-0.2184327
-4.700799	fukuoka	-0.1955525
-3.223678	fulani	-0.1471867
-4.399769	function	-0.1872279
-4.098739	fund	-0.187098
-4.399769	fundamentalism	-0.165342
-4.700799	fundisho	-0.1955265
-4.700799	fungi	-0.1955525
-4.700799	fungua	-0.1948773
-4.223678	fungunyota	-0.1759567
-4.223678	funguvisiwa	-0.1834506
-4.399769	fununu	-0.1692284
-4.001829	fupi	-0.1867362
-4.700799	furaha	-0.1941577
-4.700799	fuste	-0.19544
-4.098739	futi	-0.1742934
-4.700799	futures	-0.1653513
-4.700799	félix	-0.1955525
-4.700799	g	-0.1941056
-4.700799	gabon	-0.1653513
-4.700799	gabriel	-0.1955525
-4.700799	gaddafi	-0.1955438
-4.399769	gagarin	-0.165342
-3.797709	galaksi	-0.1496196
-4.399769	galapagos	-0.194678
-4.700799	galbraith	-0.1653513
-4.700799	gallica	-0.1653513
-4.700799	galsworthy	-0.1946173
-4.700799	gamal	-0.1955525
-4.399769	gambia	-0.1872279
-4.399769	gambling	-0.1872279
-4.700799	game	-0.1653513
-4.700799	gamow	-0.1955438
-3.554671	ganda	-0.8367899
-4.399769	gandhi	-0.2173771
-4.399769	gandunia	-0.1372762
-4.001829	gani	-0.1916688
-4.700799	ganymed	-0.1694306
-4.700799	garcía	-0.1955525
-4.700799	gardasevic	-0.1653513
-3.746556	gari	-0.2189652
-4.700799	gary	-0.1955525
-4.700799	gasarenda	-0.1653513
-4.700799	gasperi	-0.1954054
-4.700799	gates	-0.1653513
-4.700799	gateway	-0.1954833
-4.700799	gaulle	-0.1954314
-4.700799	gavana	-0.1955525
-4.700799	gavins	-0.1955525
-4.700799	gawa	-0.1876444
-4.700799	gazeti	-0.1946867
-4.700799	ge	-0.195241
-4.700799	gell	-0.1955525
-4.223678	general	-0.2099791
-4.700799	genetics	-0.1880494
-4.700799	geni	-0.1952583
-4.399769	genji	-0.1872279
-4.700799	geographical	-0.1955179
-4.399769	geologia	-0.1876356
-4.399769	geometry	-0.1872279
-4.700799	georg	-0.1955525
-3.47035	george	-0.197741
-4.223678	georges	-0.2099445
-4.098739	georgia	-0.165305
-4.700799	georgy	-0.1955525
-4.700799	gerald	-0.1955525
-4.700799	gerhard	-0.1955525
-4.700799	gerhart	-0.1955525
-4.223678	germany	-0.3865708
-4.700799	gerry	-0.1955525
-4.700799	gershwin	-0.1653513
-4.700799	gertrude	-0.1955525
-2.874724	gesi	-0.245897
-4.700799	gesner	-0.1955525
-4.700799	getreidegasse	-0.1951891
-4.001829	geu	-0.1651559
-4.223678	ghafla	-0.19544
-4.098739	ghali	-0.2050363
-4.399769	ghana	-0.1872279
-4.098739	gharama	-0.1994743
-4.001829	ghorofa	-0.1549065
-4.700799	ghost	-0.1955525
-4.223678	ghuba	-0.3605008
-4.700799	giacomo	-0.1955525
-4.700799	giaever	-0.1946173
-4.700799	giant	-0.1876444
-4.700799	gibbons	-0.1653513
-4.700799	giella	-0.1955525
-4.700799	gigliotti	-0.1653513
-4.700799	gilgil	-0.1653513
-4.399769	giligili	-0.1689802
-3.144496	gimba	-0.4659194
-4.700799	ginsberg	-0.1653513
-4.700799	giosue	-0.1955525
-4.399769	giovanni	-0.1455456
-4.399769	gitaa	-0.1914156
-4.700799	githumu	-0.1653513
-4.399769	giuseppe	-0.2174204
-4.399769	giza	-0.2174204
-4.700799	glashow	-0.1946173
-4.399769	glenn	-0.1955438
-4.223678	globe	-0.1879174
-4.700799	glukagoni	-0.1946867
-4.700799	gnassingbe	-0.1955525
-4.700799	go	-0.1955265
-4.700799	gobi	-0.1954573
-4.399769	gobind	-0.2174204
-4.700799	goddard	-0.1653513
-4.399769	gogo	-0.1771059
-4.700799	golda	-0.1955525
-3.922648	golden	-0.2893588
-4.700799	gomba	-0.1918608
-4.223678	gomez	-0.1796827
-4.700799	gonga	-0.1955525
-4.700799	good	-0.1955525
-4.700799	google	-0.1955092
-4.700799	gorbachev	-0.1653513
-4.399769	gordon	-0.1955438
-4.700799	gottfried	-0.1955525
-4.223678	government	-0.1952929
-4.700799	governmental	-0.1955006
-4.700799	govpubs	-0.1653513
-4.700799	gps	-0.1653513
-4.700799	graca	-0.1955438
-4.399769	graham	-0.1653328
-4.700799	gramatyki	-0.1955525
-4.700799	grammar	-0.1955438
-4.001829	grammy	-0.1853275
-4.700799	grammycom	-0.1955525
-4.399769	grammys	-0.1953968
-4.700799	gramophone	-0.1954573
-4.223678	gramu	-0.151215
-4.700799	graphein	-0.1954833
-4.700799	grass	-0.1946173
-3.855701	graviti	-0.197581
-4.700799	gray	-0.1653513
-4.700799	graz	-0.1653513
-4.223678	great	-0.3866054
-4.700799	greenland	-0.1919654
-4.700799	greenwood	-0.1653513
-4.399769	gregori	-0.1955265
-4.700799	gregorio	-0.1955525
-4.700799	gregory	-0.1952756
-4.700799	grenada	-0.1653513
-4.700799	grenadini	-0.1653513
-4.700799	gretzky	-0.1653513
-4.700799	grigori	-0.1955525
-4.700799	gris	-0.1653513
-4.700799	grossglockner	-0.19544
-4.700799	groucho	-0.1955525
-4.399769	grover	-0.2174204
-4.700799	growth	-0.1953362
-4.700799	grzegorz	-0.1955525
-4.700799	guadeloupe	-0.1955525
-4.700799	guam	-0.1954314
-4.700799	guanajuato	-0.1653513
-4.399769	guatemala	-0.1455456
-4.700799	guerrero	-0.1653513
-4.700799	guevara	-0.1955265
-4.700799	guglielmo	-0.1955525
-4.700799	gugu	-0.1955525
-4.223678	guide	-0.2099359
-4.223678	guild	-0.2098926
-4.098739	guinea	-0.1480669
-4.700799	gulu	-0.1653513
-4.700799	gumbe	-0.1880494
-4.700799	gunter	-0.1955525
-4.223678	gupta	-0.179794
-4.700799	gurion	-0.1955352
-4.700799	gustaf	-0.195466
-4.700799	gustav	-0.1955525
-4.399769	gutenberg	-0.1989915
-4.223678	guyana	-0.1517375
-4.399769	gyatso	-0.1872279
-4.700799	gydan	-0.1653513
-4.700799	gê	-0.1942011
-4.700799	gödel	-0.1653513
-3.586855	h	-0.7879988
-4.399769	haba	-0.1755961
-3.47035	habari	-0.2223204
-4.700799	haber	-0.1653513
-4.700799	habib	-0.1955525
-4.700799	habitat	-0.1953276
-4.700799	had	-0.1955265
-4.399769	hadhi	-0.168971
-2.700799	hadi	-0.2571988
-3.797709	hadithi	-0.2579789
-3.797709	hadubini	-0.1599132
-4.700799	hadubinividubini	-0.177115
-4.700799	hafai	-0.1941577
-4.700799	hafez	-0.1955352
-4.098739	hafifu	-0.2055565
-4.700799	hafiz	-0.1955525
-4.700799	hague	-0.177115
-3.285825	hai	-0.1596586
-4.700799	haibadiliki	-0.1955092
-4.700799	haibakii	-0.1949726
-4.700799	haibanishwi	-0.1955265
-4.700799	haidrolojia	-0.1953362
-4.700799	haieleweki	-0.1955438
-4.700799	haig	-0.1653513
-4.700799	haihitaji	-0.1948253
-4.700799	haijajumuishwa	-0.194652
-4.700799	haijakosea	-0.1955352
-4.700799	haijakubaliwa	-0.195267
-4.700799	haijawahi	-0.1955525
-4.399769	haikukamilika	-0.2171089
-4.700799	haikupata	-0.1955352
-4.223678	hail	-0.3856962
-4.700799	haile	-0.1955525
-4.399769	hailengi	-0.1954833
-4.700799	hailingani	-0.1950938
-3.700799	haina	-0.2028372
-4.223678	haionekani	-0.200747
-4.700799	haiongezeki	-0.1950938
-4.700799	haionyeshi	-0.195267
-4.700799	haipimiki	-0.1950938
-4.700799	haipiti	-0.1952583
-4.098739	haipo	-0.1945567
-4.700799	haipokei	-0.1955438
-4.700799	hairuhusiwi	-0.1950765
-4.700799	haistahili	-0.195466
-4.700799	haitaki	-0.1955438
-4.700799	haiti	-0.1653513
-4.700799	haitokei	-0.1876444
-4.223678	haitoshi	-0.1835023
-4.700799	haitunzwi	-0.1955438
-4.700799	haivuti	-0.1955352
-4.700799	haiwaki	-0.1955438
-4.700799	haiwezekani	-0.1955092
-4.399769	haiwezi	-0.1955352
-4.399769	haja	-0.1654997
-4.700799	hajakimaliza	-0.1653513
-4.700799	hajaweza	-0.1955525
-4.098739	haki	-0.1744238
-3.922648	hakika	-0.1644922
-4.700799	hakukuwa	-0.177115
-3.399769	hakuna	-0.2647758
-4.700799	hakupenda	-0.1955438
-4.700799	hakupitisha	-0.1955438
-4.399769	hakuwa	-0.1955179
-3.37858	halafu	-0.1899717
-4.700799	haley	-0.1954141
-2.77652	hali	-0.883948
-4.700799	haliangalii	-0.1955438
-4.399769	halihewa	-0.1652771
-4.700799	halii	-0.1942705
-4.700799	halijadondoka	-0.19544
-4.700799	halijatendeka	-0.1951198
-4.700799	halijaulizwa	-0.1950938
-4.399769	halijota	-0.2166498
-3.302859	halijoto	-0.2507938
-4.700799	halikumwathiri	-0.1952583
-4.700799	halikuridhika	-0.1953016
-4.700799	halima	-0.1954746
-4.399769	halina	-0.1953448
-4.700799	halipakani	-0.177115
-3.445526	halisi	-0.1270149
-4.700799	hall	-0.1948513
-4.700799	halmashauri	-0.1694306
-4.700799	halon	-0.1955092
-4.700799	halsten	-0.1955525
-4.700799	hamlin	-0.1955265
-4.700799	han	-0.1954487
-4.700799	hancock	-0.1955438
-4.399769	handicap	-0.1872279
-4.700799	hangin	-0.1955438
-4.399769	hangul	-0.1872279
-4.700799	hannes	-0.1955525
-4.700799	hannibal	-0.1955525
-4.700799	hans	-0.1955352
-4.700799	hanserd	-0.1955525
-3.659406	hao	-0.2333218
-3.16932	hapa	-0.1640894
-4.700799	hapakuwa	-0.1950938
-4.700799	hapana	-0.1953795
-3.209437	hapo	-0.2438673
-4.700799	happy	-0.1955352
-4.399769	har	-0.2174204
-3.253641	haraka	-0.3777274
-3.855701	harakati	-0.8153536
-4.700799	harambee	-0.1955352
-4.700799	haramu	-0.1815683
-4.399769	harara	-0.2173771
-4.700799	hardaway	-0.1955525
-4.700799	haribifu	-0.1955438
-4.223678	hariri	-0.1625886
-4.700799	harold	-0.1955525
-4.700799	harper	-0.1955525
-4.700799	harpercollins	-0.1955438
-4.700799	harrison	-0.1955092
-4.399769	harry	-0.2174204
-4.700799	hart	-0.1955525
-4.700799	hartl	-0.19544
-4.399769	harufu	-0.1872279
-4.700799	harvey	-0.1955092
-2.709573	hasa	-0.1953924
-4.399769	hasara	-0.2095209
-4.700799	hashmi	-0.1653513
-3.746556	hasi	-0.2069091
-4.700799	hassan	-0.1955525
-2.915469	hata	-0.4968054
-3.496679	hatari	-0.2140191
-4.700799	hatazami	-0.1955438
-4.700799	hategemei	-0.194626
-4.098739	hatimaye	-0.1934542
-3.659406	hatua	-0.2433368
-4.700799	hatuna	-0.1955092
-4.399769	hatuusikii	-0.2095209
-4.700799	haufuati	-0.1953708
-4.700799	haujapotea	-0.1942271
-4.700799	haukuhesabiwa	-0.1904015
-4.700799	haukuwa	-0.1950938
-4.399769	hauna	-0.1939667
-4.700799	haupiti	-0.1952583
-4.700799	hauptmann	-0.1946173
-4.700799	have	-0.1955525
-4.700799	havel	-0.1955525
-4.700799	havina	-0.1954573
-4.700799	hawa	-0.1955438
-4.700799	hawaainishi	-0.1955092
-4.700799	hawaamini	-0.1694306
-4.700799	hawaenei	-0.1955525
-4.223678	hawaii	-0.1717547
-4.700799	hawajaathirika	-0.1955525
-4.700799	hawajahitimu	-0.1955525
-4.700799	hawajawahi	-0.1955525
-4.700799	hawakuainishwa	-0.1952323
-4.700799	hawakuhitimu	-0.1653513
-4.700799	hawakuingia	-0.1653513
-4.399769	hawakutambua	-0.2167538
-4.700799	hawakutani	-0.1653513
-4.700799	hawakuwa	-0.1955525
-4.700799	hawakuwahi	-0.1955525
-4.001829	hawana	-0.2037386
-4.700799	hawaoni	-0.1955179
-4.700799	hawapo	-0.1950938
-4.700799	hawapungui	-0.1951111
-4.700799	hawaridhiki	-0.1955525
-4.700799	hawasemi	-0.1954487
-4.700799	hawawezi	-0.1955438
-4.700799	hawazai	-0.1950938
-4.700799	hawkins	-0.1955438
-3.16932	haya	-0.1858004
-4.700799	hayafuati	-0.1955525
-4.700799	hayajakuwa	-0.1694306
-4.700799	hayakufaa	-0.1950938
-4.700799	hayakuonekana	-0.1951631
-4.700799	hayakuwa	-0.1953016
-4.700799	hayana	-0.1954487
-4.700799	hayaozi	-0.1952756
-4.399769	hayapo	-0.2162597
-4.700799	hayatapatikana	-0.1876444
-4.700799	hayawezi	-0.1955525
-4.098739	haydn	-0.1800657
-3.855701	hayo	-0.1932108
-4.700799	hazidumu	-0.1955265
-4.700799	hazifikii	-0.1653513
-4.700799	hazifungwi	-0.1954573
-4.399769	hazikai	-0.2171435
-4.223678	haziko	-0.3863025
-4.700799	hazikuishia	-0.1948253
-4.700799	hazikuonekana	-0.1904015
-4.700799	hazikutunzwa	-0.195466
-4.700799	hazikuumbwa	-0.1950592
-4.700799	hazikuwa	-0.1955179
-4.700799	hazikuweza	-0.1955092
-4.399769	hazipatikani	-0.213842
-4.700799	hazishikani	-0.1943832
-4.700799	haziwezi	-0.1955438
-4.700799	hd	-0.1653513
-4.399769	headache	-0.1872279
-4.223678	health	-0.1652771
-4.700799	heaney	-0.1653513
-4.399769	heart	-0.2174204
-4.700799	hebe	-0.1955525
-4.700799	hebridi	-0.1950765
-4.700799	hector	-0.1955525
-4.700799	hedhi	-0.1653513
-4.399769	heisenberg	-0.1643395
-4.223678	hekaya	-0.3840722
-4.399769	hektari	-0.1652864
-3.700799	heli	-0.2180081
-4.399769	helikali	-0.2034448
-4.399769	helium	-0.2174204
-4.399769	helmut	-0.1955438
-3.922648	helsingborgs	-0.2500541
-4.700799	hema	-0.1653513
-4.700799	hemingway	-0.1653513
-4.399769	hendrix	-0.1653235
-4.098739	henri	-0.2063271
-3.855701	henry	-0.2078403
-4.700799	herbert	-0.1955525
-4.700799	hercules	-0.1953535
-4.700799	heri	-0.1955525
-4.700799	heritage	-0.1955525
-4.399769	herman	-0.1955438
-4.223678	herpetolojia	-0.1934455
-4.700799	hershey	-0.1946173
-3.700799	herufi	-0.1550504
-4.700799	herufikarne	-0.1653513
-4.223678	herzegovina	-0.1949033
-4.223678	hesabu	-0.207089
-4.399769	heshima	-0.1610181
-2.77652	hewa	-0.2283177
-3.621618	hewani	-0.1406744
-4.700799	hey	-0.1653513
-4.700799	heyrman	-0.1955525
-4.700799	hezekiah	-0.1955525
-4.700799	hfpa	-0.1876444
-4.700799	hi	-0.1955525
-4.399769	hiari	-0.1689802
-4.223678	hicho	-0.1653328
-4.700799	hidalgo	-0.1653513
-4.700799	hideki	-0.1955525
-4.399769	hidrati	-0.2174117
-3.358376	hidrojeni	-0.2226438
-4.700799	hidrojiolojia	-0.1880494
-4.700799	hidrokaboni	-0.1949899
-3.746556	hifadhi	-1.123462
-4.399769	high	-0.1955438
-2.527613	hii	-0.293891
-3.554671	hiki	-0.1810496
-4.700799	hilbert	-0.1653513
-3.269435	hili	-0.1710039
-4.399769	hill	-0.1652864
-4.700799	hillary	-0.1653513
-4.001829	hilo	-0.1909701
-4.399769	himalaya	-0.1769976
-4.700799	himaya	-0.1949899
-3.855701	hindi	-0.1516748
-4.223678	hinnebusch	-0.3865708
-4.700799	hio	-0.177115
-4.001829	hip	-0.7739627
-4.399769	hippokrates	-0.1954314
-4.700799	hirohito	-0.1953795
-4.700799	hiroshima	-0.1955525
-4.223678	hisabati	-0.1494777
-4.700799	hisia	-0.1904978
-3.855701	hispania	-0.2170787
-4.700799	histolojia	-0.1947907
-4.700799	histoni	-0.1955525
-3.109734	historia	-0.7074809
-4.700799	historical	-0.1955006
-3.797709	history	-0.1752701
-4.223678	hitler	-0.1650452
-3.223678	hivi	-0.1243515
-2.937371	hivyo	-0.1554968
-3.001829	hiyo	-0.1432376
-4.399769	hiyohiyo	-0.1650174
-2.881255	hizi	-0.2410446
-3.358376	hizo	-0.2338341
-4.700799	ho	-0.1955352
-4.700799	hofstadter	-0.1954141
-4.399769	hofu	-0.1913071
-4.700799	hoja	-0.1951371
-4.700799	hokkaido	-0.1955525
-4.399769	hole	-0.1652771
-4.399769	holley	-0.1989915
-4.700799	holly	-0.1955525
-4.223678	hollywood	-0.1949379
-4.098739	homiostasisi	-0.1479086
-4.399769	homo	-0.1955179
-4.700799	homoszféra	-0.1653513
-4.700799	honduras	-0.1653513
-4.700799	hong	-0.1955525
-4.700799	hongkong	-0.177115
-4.700799	honorius	-0.1955265
-4.399769	honshu	-0.1771059
-4.001829	hop	-0.1648875
-4.700799	hopkins	-0.1946173
-4.700799	hospitali	-0.1955265
-4.700799	hosting	-0.194626
-4.700799	houphouët	-0.1955525
-4.399769	house	-0.1948426
-4.700799	hovyo	-0.1946867
-4.223678	how	-0.2099878
-4.700799	howard	-0.1955438
-4.700799	howstuffworks	-0.1653513
-3.855701	http	-0.1954919
-4.700799	https	-0.1955525
-4.399769	hu	-0.1955438
-4.700799	huainishwa	-0.1904015
-4.098739	huamini	-0.4460876
-4.700799	huaminiwa	-0.1941577
-4.700799	huandaa	-0.177115
-4.399769	huandaliwa	-0.1688515
-4.700799	huandikwa	-0.1876444
-4.700799	huanza	-0.177115
-4.223678	huathiriana	-0.1861913
-4.399769	hubadilika	-0.1754693
-4.399769	hubadilisha	-0.2169703
-4.700799	hubadilishwa	-0.1939233
-4.700799	hubebwa	-0.1904015
-4.700799	huchagua	-0.1939233
-4.399769	huchaguliwa	-0.1763743
-4.700799	huchapisha	-0.1948773
-4.700799	huchimbuka	-0.1955006
-4.399769	huchimbwa	-0.193767
-4.700799	huchoma	-0.1939233
-4.098739	huchomwa	-0.1806741
-4.399769	huchukua	-0.2170396
-4.700799	huchukuliwa	-0.1939841
-3.496679	huchunguza	-0.2387601
-4.700799	huchunguzwa	-0.1904015
-4.700799	hudhihirisha	-0.1955265
-4.098739	huduma	-0.1555139
-4.399769	huelekea	-0.1954919
-4.700799	hueleza	-0.194886
-4.700799	huelezea	-0.19544
-4.399769	huelezwa	-0.2095209
-4.399769	huenda	-0.1943398
-4.223678	huendelea	-0.2083238
-4.700799	hufanana	-0.1904015
-4.399769	hufanya	-0.1955006
-4.700799	hufanyakazi	-0.1904015
-4.399769	hufanyika	-0.1895867
-4.700799	hufanywa	-0.1946173
-3.855701	hufikia	-0.2804092
-4.223678	hufuata	-0.1953795
-4.700799	hufunika	-0.1904978
-4.700799	huganda	-0.1952583
-4.700799	huganwanyika	-0.1904015
-4.399769	hugawiwa	-0.2095209
-4.700799	hugh	-0.1955438
-4.700799	huhamahama	-0.1951371
-4.399769	huhesabiwa	-0.1598177
-4.399769	huhesabu	-0.2174204
-4.223678	huimba	-0.1764918
-4.700799	huingia	-0.1950938
-4.098739	huishi	-0.3252599
-4.700799	huita	-0.1955525
-3.253641	huitwa	-0.2515898
-4.700799	hujaendelea	-0.1955092
-4.700799	hujambo	-0.1953795
-4.700799	hujaribu	-0.1955525
-4.399769	hujengwa	-0.1875563
-4.399769	hujidhihirisha	-0.1894552
-4.700799	hujitolea	-0.1939233
-4.399769	hujulikana	-0.213842
-4.399769	hukadiriwa	-0.1756505
-4.700799	hukalia	-0.194574
-4.223678	hukatwa	-0.3787146
-3.339071	huko	-0.2002241
-4.700799	hukokotolewa	-0.1876444
-4.700799	hukopa	-0.19544
-3.700799	huku	-0.183381
-4.700799	hukubaliana	-0.1694306
-4.700799	hukumbuka	-0.1947127
-4.700799	hukusanya	-0.194652
-4.700799	hukutana	-0.1942705
-4.098739	hula	-0.1878252
-4.700799	huleta	-0.1950505
-4.700799	huletwa	-0.177115
-4.700799	hulse	-0.1946173
-4.700799	human	-0.1955525
-4.700799	humber	-0.1653513
-4.700799	humboldt	-0.1954746
-4.700799	humo	-0.1942618
-4.700799	humu	-0.1952064
-4.700799	hunakili	-0.1953276
-4.001829	hungaria	-0.1452738
-4.700799	hunter	-0.1955438
-3.285825	huo	-0.1189748
-4.223678	huohuo	-0.1951284
-4.700799	huona	-0.1694306
-4.098739	huonekana	-0.1922974
-4.700799	huongea	-0.1946953
-4.700799	huonyesha	-0.1953276
-4.700799	huonyeshwa	-0.1904015
-4.700799	hupambana	-0.177115
-4.700799	hupangwa	-0.1943832
-4.399769	hupanua	-0.2172127
-4.399769	hupata	-0.2168837
-3.922648	hupatikana	-0.1769886
-4.399769	hupenda	-0.2174117
-4.700799	hupiga	-0.1954314
-4.700799	hupigwa	-0.177115
-4.223678	hupimwa	-0.1984435
-4.700799	hupita	-0.1955438
-4.700799	hupitana	-0.177115
-4.700799	hupitia	-0.1955525
-4.700799	hupitisha	-0.1951458
-4.700799	hupitishwa	-0.1939841
-4.700799	hupoa	-0.177115
-4.700799	hupotea	-0.1919654
-3.700799	huria	-0.1395379
-4.700799	hurithi	-0.1952064
-3.700799	huru	-0.2006103
-4.700799	huruhusiwa	-0.1955265
-4.399769	husababisha	-0.1952929
-4.700799	husagwa	-0.1949206
-4.700799	hushikilia	-0.1953881
-4.700799	hushiriki	-0.1953708
-4.700799	hushirikisha	-0.1955265
-4.700799	hushuka	-0.1951198
-4.700799	husianafu	-0.1951804
-3.855701	husika	-0.1284288
-4.700799	husimba	-0.1954487
-4.700799	husoma	-0.1946953
-4.399769	hussein	-0.19544
-4.700799	hustlers	-0.1955438
-4.700799	hutafsiri	-0.1955265
-4.700799	hutafsiriwa	-0.1946173
-4.700799	hutaja	-0.1946173
-4.399769	hutajwa	-0.1862151
-4.700799	hutaka	-0.1955092
-4.700799	hutaona	-0.1953189
-4.223678	hutegemea	-0.1949812
-4.700799	hutegemeana	-0.177115
-4.700799	huteka	-0.194886
-4.399769	hutembea	-0.2095209
-4.700799	hutenda	-0.1948253
-4.700799	hutengeneza	-0.1955179
-4.098739	hutengenezwa	-0.1366229
-4.700799	hutirikia	-0.1939841
-4.223678	hutoa	-0.1954141
-4.098739	hutofautiana	-0.3105991
-4.700799	hutofautisha	-0.1955092
-4.223678	hutoka	-0.3851845
-3.922648	hutokana	-0.5815424
-3.586855	hutokea	-0.1998655
-4.001829	hutolewa	-0.190071
-3.422045	hutumia	-0.2400809
-3.797709	hutumika	-0.1974572
-3.621618	hutumiwa	-0.2479589
-4.700799	hutungwa	-0.177115
-3.121015	huu	-0.2441406
-4.700799	huunda	-0.1951371
-4.700799	huvutwa	-0.1955438
-3.019558	huwa	-0.6697281
-4.700799	huwaita	-0.195466
-4.399769	huwaka	-0.1770788
-4.700799	huwakilishwa	-0.194756
-4.700799	huwasha	-0.1949206
-4.700799	huwekwa	-0.1904015
-4.700799	huwezi	-0.195466
-4.700799	huyo	-0.1955438
-4.001829	huyu	-0.1965274
-4.700799	huzingatia	-0.1955525
-4.700799	huzingatiwa	-0.1919654
-4.399769	huzungumza	-0.1939494
-4.700799	hwa	-0.1954487
-4.700799	hwangho	-0.193002
-4.700799	hydrogéologie	-0.1653513
-4.700799	hydrologically	-0.1955525
-4.700799	händel	-0.1653513
-3.746556	i	-0.1403319
-4.700799	iaea	-0.1953708
-4.700799	ibada	-0.1955438
-4.700799	ibara	-0.1694306
-4.700799	ibn	-0.1955525
-4.700799	icbn	-0.1953189
-4.700799	ichthiolojia	-0.1947907
-4.700799	ichthyolojia	-0.1955525
-4.700799	icnb	-0.1653513
-4.700799	icvcn	-0.1952323
-4.700799	iczn	-0.177115
-4.399769	id	-0.1955352
-2.976523	idadi	-0.7623963
-4.700799	idaho	-0.1954573
-4.098739	idara	-0.2989184
-4.700799	identities	-0.1955525
-4.223678	idi	-0.2099791
-4.700799	idomeneo	-0.1951111
-4.700799	ieleweke	-0.1653513
-4.223678	if	-0.1795807
-4.700799	ifikapo	-0.1949812
-4.700799	ifuatavyo	-0.1653513
-4.700799	ifuatayo	-0.1653513
-4.700799	igdaaaambaj	-0.1955525
-4.399769	igizo	-0.1694214
-4.700799	igor	-0.1955525
-3.586855	ii	-0.2012325
-4.098739	iii	-0.1562394
-4.700799	iitwayo	-0.1955525
-4.700799	ikaanza	-0.1955179
-4.399769	ikabaki	-0.1941924
-4.700799	ikaelekea	-0.1941577
-4.399769	ikajenga	-0.2173166
-4.700799	ikajiunga	-0.177115
-4.700799	ikapata	-0.1953881
-4.700799	ikapokea	-0.1955438
-4.700799	ikatoka	-0.1904015
-4.700799	ikatwaa	-0.195241
-4.700799	ikauke	-0.1653513
-4.700799	ikaunganishwa	-0.1951198
-4.001829	ikawa	-0.2026637
-4.700799	ikibeba	-0.1951458
-4.700799	ikichanganywa	-0.177115
-4.700799	ikicheza	-0.177115
-4.700799	ikichomwa	-0.1955092
-4.700799	ikielekezwa	-0.1939841
-4.700799	ikigawanywa	-0.1876444
-4.700799	ikiitwa	-0.1955006
-4.700799	ikilenga	-0.1954573
-4.223678	ikionekana	-0.18633
-4.700799	ikiongeza	-0.1946953
-4.700799	ikiongezeka	-0.1954487
-4.700799	ikipakana	-0.1952929
-4.700799	ikipashwa	-0.1653513
-4.700799	ikitafuta	-0.1954487
-4.700799	ikitambulika	-0.1919654
-4.700799	ikitekeleza	-0.1954573
-4.700799	ikitumiwa	-0.1955525
-4.399769	ikitunzwa	-0.212278
-4.399769	ikivutiwa	-0.2165025
-3.358376	ikiwa	-0.5819708
-4.700799	ikiwaka	-0.1955525
-4.223678	ikiwemo	-0.1766544
-4.399769	ikiwezekana	-0.1872279
-4.700799	ikizunguka	-0.194678
-3.47035	iko	-0.2153786
-3.445526	ikolojia	-0.1190205
-4.700799	ikubalike	-0.1955352
-4.700799	ikulu	-0.1694306
-3.922648	ikweta	-0.1626559
-4.223678	ila	-0.2092432
-4.700799	ilani	-0.1953449
-3.496679	ile	-0.2710281
-4.399769	ileile	-0.169403
-4.700799	ilenea	-0.1904015
-3.621618	ilhali	-0.2004943
-3.445526	ili	-0.2228883
-4.399769	iliaanza	-0.1918869
-4.700799	iliahidi	-0.1954919
-4.700799	iliahirisha	-0.1950765
-4.700799	iliahirishwa	-0.1950938
-4.098739	iliandikwa	-0.2073575
-4.700799	ilianguka	-0.1904015
-4.700799	iliangushwa	-0.1955352
-3.700799	ilianza	-0.175625
-3.922648	ilianzishwa	-0.1378184
-4.700799	ilibaki	-0.1955438
-4.700799	ilibashiri	-0.1955352
-4.700799	ilichapishwa	-0.1934369
-4.700799	ilichongwa	-0.1919654
-4.700799	ilichukuliwa	-0.1919654
-4.700799	ilidai	-0.1955525
-4.223678	iliendelea	-0.19544
-4.700799	ilienea	-0.1955525
-4.700799	ilifika	-0.1876444
-4.399769	ilifuata	-0.1953708
-4.700799	ilifundishwa	-0.1955352
-4.700799	ilifunikwa	-0.177115
-4.700799	iligawiwa	-0.1876444
-4.700799	iligundua	-0.1949466
-4.700799	iligunduliwa	-0.1953016
-4.399769	ilihesabiwa	-0.213842
-4.700799	ilihitajika	-0.1955525
-4.700799	iliimbwa	-0.1952843
-4.399769	iliingia	-0.190349
-4.700799	iliingiliwa	-0.1947127
-4.098739	iliitwa	-0.1955179
-4.700799	ilijibu	-0.1876444
-4.223678	ilijitokeza	-0.3857569
-4.700799	ilikaliwa	-0.177115
-4.700799	ilikua	-0.1919654
-3.088015	ilikuwa	-0.2224554
-4.399769	ilileta	-0.2171867
-4.223678	iliona	-0.2094771
-4.399769	ilionekana	-0.1656109
-4.399769	iliongezeka	-0.1942271
-4.700799	iliongoza	-0.1954487
-4.399769	ilipanua	-0.2168924
-4.700799	ilipata	-0.1953881
-4.700799	ilipatikana	-0.1955265
-4.700799	ilipinduliwa	-0.177115
-4.700799	ilipokea	-0.194574
-4.700799	ilipoonekana	-0.1919654
-4.700799	ilipoteremshwa	-0.1955179
-4.700799	ilipowaka	-0.1950505
-4.700799	ilirudishwa	-0.1919654
-4.700799	iliruhusu	-0.1951371
-4.700799	ilisaabishwa	-0.177115
-4.700799	ilisababishwa	-0.1876444
-4.700799	ilisaidia	-0.1939233
-4.700799	ilisanifishwa	-0.177115
-4.399769	ilishawishi	-0.2170829
-4.223678	ilishinda	-0.1788007
-4.399769	ilishindwa	-0.1903577
-4.700799	ilisimama	-0.1653513
-4.399769	ilisomwa	-0.2168318
-4.700799	ilitafutwa	-0.1955525
-4.700799	ilitangaza	-0.1941577
-4.700799	ilitawala	-0.1939233
-4.700799	ilitawaliwa	-0.177115
-4.700799	ilitoka	-0.1943832
-4.399769	ilitokea	-0.194756
-4.700799	ilitolewa	-0.1952843
-4.223678	ilitumiwa	-0.1850913
-4.700799	ilitwaliwa	-0.177115
-4.700799	iliunda	-0.1954746
-4.700799	iliundwa	-0.1955092
-4.700799	iliunganika	-0.177115
-4.700799	ilivamiwa	-0.177115
-4.700799	ilivunjika	-0.1653513
-3.922648	ilivyo	-0.1820236
-4.700799	ilivyoandikwa	-0.1876444
-4.700799	ilivyoathiriwa	-0.177115
-4.399769	ilivyokuwa	-0.1871597
-4.399769	ilivyoonekana	-0.2168404
-4.700799	ilivyopiga	-0.1955525
-4.700799	iliwagawanya	-0.1955352
-4.223678	iliwahi	-0.2085581
-4.700799	iliweza	-0.1954314
-3.855701	iliyo	-0.2050892
-4.700799	iliyoakisiwa	-0.1949726
-4.700799	iliyoanzia	-0.1953708
-4.700799	iliyoanzishwa	-0.1876444
-4.700799	iliyobuniwa	-0.177115
-4.223678	iliyochomwa	-0.3681852
-4.399769	iliyofanyika	-0.2171781
-4.700799	iliyofaulu	-0.1954573
-4.700799	iliyofikiwa	-0.1953449
-4.700799	iliyogeukia	-0.1941577
-4.700799	iliyogeuzwa	-0.1941577
-4.700799	iliyogonga	-0.1953189
-4.399769	iliyogunduliwa	-0.2170829
-4.700799	iliyoitwa	-0.1955438
-4.700799	iliyojulikana	-0.1946953
-4.700799	iliyojumlisha	-0.194574
-4.700799	iliyokaliwa	-0.177115
-4.001829	iliyoko	-0.2018296
-4.700799	iliyokufa	-0.1949639
-4.700799	iliyokusanya	-0.1948253
-4.098739	iliyokusanywa	-0.1716907
-3.746556	iliyokuwa	-0.2835208
-4.700799	iliyoleta	-0.1955092
-4.223678	iliyolipuka	-0.2065488
-4.700799	iliyompa	-0.1954833
-4.700799	iliyonaswa	-0.1904015
-4.700799	iliyoondolewa	-0.177115
-4.700799	iliyopangwa	-0.1953449
-4.700799	iliyopanishwa	-0.1694306
-4.700799	iliyopata	-0.1950072
-4.399769	iliyopatikana	-0.1875739
-3.554671	iliyopita	-0.2697807
-4.700799	iliyopo	-0.1904015
-4.700799	iliyopokea	-0.1953881
-4.700799	iliyoratibu	-0.1954573
-4.700799	iliyosababisha	-0.1653513
-4.399769	iliyoshikilia	-0.2172041
-4.399769	iliyoshikwa	-0.2172214
-4.700799	iliyoshusha	-0.1952583
-4.700799	iliyotakiwa	-0.1955265
-4.399769	iliyotangulia	-0.2174204
-4.700799	iliyotengenezwa	-0.177115
-4.700799	iliyotokana	-0.177115
-4.700799	iliyotumia	-0.1955092
-4.399769	iliyotungwa	-0.2169184
-4.700799	iliyovunjikavunjika	-0.177115
-4.700799	iliyowahi	-0.1954833
-4.700799	iliyoweka	-0.195466
-4.399769	iliyowekwa	-0.1989915
-4.700799	iliyowezesha	-0.1953102
-4.700799	ilizidi	-0.1941577
-4.700799	ilkuwa	-0.1953189
-4.700799	ilo	-0.1954833
-4.700799	ilosemwa	-0.1953449
-4.399769	ilya	-0.1955179
-4.700799	ilyich	-0.1955525
-4.700799	ilyofunikwa	-0.1876444
-4.098739	image	-0.3302552
-4.700799	imageeurope	-0.1955525
-4.700799	imali	-0.1653513
-3.922648	imani	-0.1671372
-3.621618	imara	-0.1867436
-4.700799	imdb	-0.1955525
-4.399769	imeamuliwa	-0.2099259
-4.700799	imebadilisha	-0.195466
-4.700799	imebakia	-0.1955006
-4.700799	imechukua	-0.1950159
-4.700799	imechukuwa	-0.1950159
-4.700799	imedhibitika	-0.1954573
-4.700799	imedhibitiwa	-0.177115
-4.399769	imeendelea	-0.1949552
-4.700799	imeenea	-0.1942618
-4.700799	imefanyika	-0.1876444
-4.399769	imefika	-0.1949033
-4.700799	imefuata	-0.1955092
-4.700799	imefunikwa	-0.177115
-4.700799	imegawiwa	-0.1876444
-4.700799	imegundua	-0.1694306
-4.399769	imegunduliwa	-0.1913071
-4.700799	imeimizwa	-0.1955352
-4.700799	imeitwa	-0.177115
-4.700799	imejikaza	-0.194626
-4.700799	imejitokeza	-0.177115
-4.700799	imejulikana	-0.195466
-4.700799	imekaa	-0.1951891
-4.700799	imekadiria	-0.1694306
-4.001829	imekadiriwa	-0.2721181
-4.700799	imekatika	-0.1904015
-4.700799	imekubaliwa	-0.1919654
-3.659406	imekuwa	-0.1734391
-4.001829	imekwisha	-0.2807544
-4.399769	imeleta	-0.1952496
-4.399769	imenyooshwa	-0.2165025
-4.700799	imeonekana	-0.1694306
-3.746556	imepakana	-0.9815538
-4.700799	imepanuka	-0.194626
-4.700799	imepata	-0.1955525
-4.700799	imepataniwa	-0.1880494
-4.399769	imepatikana	-0.1933151
-4.700799	imepimwa	-0.1694306
-4.700799	imepita	-0.1952323
-4.700799	imepokea	-0.1955525
-4.700799	imepokelewa	-0.1904015
-4.700799	imepungua	-0.1904015
-4.700799	imesababishwa	-0.177115
-4.700799	imesaidia	-0.194626
-4.700799	imesambaa	-0.1876444
-4.700799	imeshikiliwa	-0.194652
-4.399769	imetambuliwa	-0.1939146
-4.700799	imetawala	-0.1954833
-4.700799	imetoka	-0.1941056
-4.700799	imetokea	-0.1904015
-4.700799	imetumia	-0.1952929
-4.223678	imeundwa	-0.1878238
-4.399769	imeunganisha	-0.1953535
-4.700799	imewekwa	-0.1949812
-4.700799	imf	-0.1954833
-4.399769	immune	-0.2173166
-4.700799	impact	-0.1955525
-4.700799	imre	-0.1955525
-3.285825	in	-0.4055361
-2.944924	ina	-0.2197377
-4.399769	inaachisha	-0.2167625
-4.700799	inaainishwa	-0.1952929
-4.700799	inaakisisha	-0.1955265
-4.700799	inaaminika	-0.1941577
-4.001829	inaaminiwa	-0.202655
-4.700799	inaaminmiwa	-0.1694306
-3.797709	inaanza	-0.2047325
-4.700799	inaathiriwa	-0.177115
-4.098739	inabadilishwa	-0.197527
-4.399769	inabuniwa	-0.1955438
-4.700799	inachanganywa	-0.1946173
-4.700799	inachuguza	-0.1947127
-4.399769	inachukua	-0.2172041
-4.700799	inachukuliwa	-0.1954227
-4.700799	inachungulia	-0.1939233
-4.700799	inachunguza	-0.1955006
-4.700799	inadai	-0.1947387
-4.700799	inadhibitiwa	-0.177115
-4.700799	inaelekea	-0.1951631
-4.700799	inaeleza	-0.1954487
-4.098739	inaendelea	-0.2060588
-4.399769	inaenea	-0.212278
-4.399769	inafaa	-0.1941924
-4.700799	inafahamika	-0.1942618
-4.700799	inafanana	-0.1954141
-4.700799	inafanya	-0.1947907
-4.399769	inafanywa	-0.1761301
-4.001829	inafikia	-0.2990043
-4.001829	inafuata	-0.2813145
-4.098739	inafunikwa	-0.453772
-4.700799	inaganda	-0.1653513
-4.700799	inahamia	-0.1953535
-4.700799	inaharibika	-0.177115
-4.700799	inahesabiwa	-0.1941143
-4.098739	inahitaji	-0.1938365
-4.700799	inahusisha	-0.1954746
-4.700799	inahusu	-0.1934369
-4.700799	inaifanyia	-0.1947907
-4.223678	inaishia	-0.2020968
-3.922648	inaitwa	-0.194756
-4.223678	inajaa	-0.1950765
-4.700799	inajengwa	-0.1876444
-4.700799	inajihusisha	-0.1947127
-4.700799	inajikaza	-0.1953016
-4.700799	inajikinga	-0.177115
-4.700799	inajuliakana	-0.1919654
-3.922648	inajulikana	-0.248082
-4.700799	inajumuisha	-0.1954746
-4.399769	inakatwa	-0.1921224
-4.399769	inakinga	-0.2172646
-4.223678	inakua	-0.1795529
-4.399769	inakubaliwa	-0.1989915
-4.700799	inakusanywa	-0.1953535
-4.700799	inakuwa	-0.1955179
-4.700799	inakwama	-0.1955525
-4.399769	inakwisha	-0.1989915
-4.700799	inalenga	-0.1954919
-4.700799	inaleta	-0.1952756
-4.700799	inalingana	-0.1946867
-4.399769	inamaanisha	-0.1946086
-4.700799	inamiliki	-0.194574
-4.700799	inaodoa	-0.1954314
-3.746556	inaonekana	-0.2037302
-4.223678	inaongezeka	-0.1915672
-4.098739	inaongoza	-0.3223706
-4.399769	inaonyesha	-0.1690538
-4.700799	inaorodhesha	-0.1940101
-4.399769	inapanda	-0.2169703
-4.223678	inapata	-0.3864583
-4.399769	inapatikana	-0.1864448
-4.700799	inapatwa	-0.194756
-4.700799	inapendeza	-0.1955525
-4.700799	inapewa	-0.195267
-4.399769	inapiga	-0.1951284
-4.700799	inapigwa	-0.1951891
-4.700799	inapimwa	-0.1951891
-4.399769	inapita	-0.1950938
-4.700799	inapopatikana	-0.1955438
-4.700799	inapopiga	-0.195267
-4.700799	inaposababisha	-0.1955179
-4.399769	inapozwa	-0.2165719
-4.700799	inapumzika	-0.1876444
-4.399769	inapungua	-0.2171262
-4.700799	inapunguza	-0.1949899
-4.700799	inarudi	-0.1955092
-4.700799	inaruhusu	-0.1954573
-4.700799	inasababisha	-0.1955438
-4.399769	inasababishwa	-0.1989915
-4.223678	inasaidia	-0.1604839
-3.922648	inasema	-0.1501221
-4.700799	inasemekana	-0.1941577
-4.399769	inashika	-0.1947127
-4.700799	inashirikiana	-0.177115
-4.700799	inashughulika	-0.194626
-4.098739	inashuka	-0.2156696
-4.700799	inasikika	-0.1947387
-4.700799	inasimamiwa	-0.177115
-4.700799	inasukuma	-0.194574
-4.098739	inatafuta	-0.205045
-4.399769	inataja	-0.2157998
-4.700799	inatajwa	-0.1876444
-4.399769	inatangaza	-0.2172646
-4.399769	inatangazwa	-0.2160342
-4.700799	inatawala	-0.1941143
-4.399769	inatawaliwa	-0.1989915
-4.700799	inatazama	-0.1953449
-4.098739	inategemea	-0.1688699
-4.700799	inatizamwa	-0.194626
-4.399769	inatoa	-0.1949033
-4.223678	inatoka	-0.2041707
-3.797709	inatokea	-0.1164681
-4.700799	inatolewa	-0.1954573
-4.399769	inatuambia	-0.2099259
-4.223678	inatumia	-0.1951977
-4.700799	inatumika	-0.195466
-4.223678	inatumiwa	-0.1815593
-4.700799	inaundwa	-0.1955092
-4.700799	inaunganishwa	-0.177115
-4.700799	inavunjika	-0.177115
-4.700799	inavunjwa	-0.1946173
-4.700799	inavutika	-0.1876444
-4.700799	inavyoathiriwa	-0.177115
-4.700799	inavyoeleweka	-0.1951891
-4.700799	inavyofanya	-0.1948253
-4.399769	inavyofikia	-0.2165719
-4.700799	inavyohitajika	-0.1653513
-4.700799	inavyopendekezwa	-0.1876444
-4.700799	inavyoweza	-0.1955525
-4.399769	inawaka	-0.1918695
-4.700799	inawaza	-0.1955525
-3.302859	inaweza	-0.2343112
-4.399769	inawezakana	-0.2173252
-4.001829	inawezekana	-0.1863035
-4.700799	inawezesha	-0.1942618
-4.700799	inayo	-0.1955525
-4.700799	inayoangaliwa	-0.1880494
-4.700799	inayoanza	-0.1942358
-4.700799	inayoathiri	-0.1954054
-4.399769	inayobaki	-0.2099259
-4.700799	inayochaguliwa	-0.1876444
-4.700799	inayochangia	-0.1941143
-4.700799	inayochelewesha	-0.1954833
-4.700799	inayochunguzwa	-0.194626
-4.700799	inayodumu	-0.1946953
-4.399769	inayoelezea	-0.1946173
-4.223678	inayoendelea	-0.2084193
-4.700799	inayoendesha	-0.1955438
-4.700799	inayofanya	-0.1955438
-4.700799	inayofanyika	-0.194756
-4.700799	inayofuata	-0.1955525
-4.700799	inayofundishwa	-0.1942271
-4.399769	inayoganda	-0.2169703
-4.700799	inayogundua	-0.1954919
-4.700799	inayohesabiwa	-0.1941577
-4.098739	inayohusu	-0.2162077
-4.700799	inayoimbwa	-0.1904015
-4.700799	inayoishi	-0.1948513
-4.700799	inayoishia	-0.1941143
-3.922648	inayoitwa	-0.1951804
-4.223678	inayojenga	-0.2090005
-4.700799	inayojidhirisha	-0.1876444
-4.700799	inayojijenga	-0.1942358
-4.700799	inayojitegemea	-0.1653513
-4.001829	inayojulikana	-0.2091683
-4.700799	inayokaa	-0.1943832
-4.700799	inayokua	-0.1952843
-4.700799	inayokubalika	-0.1653513
-4.700799	inayokubaliwa	-0.177115
-4.700799	inayokuja	-0.1955265
-4.700799	inayokuwa	-0.1876444
-4.700799	inayolenga	-0.195241
-4.700799	inayomaanisha	-0.1955092
-4.700799	inayoonekana	-0.1919654
-4.700799	inayoonesha	-0.1949726
-4.700799	inayopakana	-0.177115
-4.700799	inayopanda	-0.1946953
-4.700799	inayopasuliwa	-0.1941577
-4.098739	inayopatikana	-0.1983216
-4.223678	inayopita	-0.1934542
-4.700799	inayopitisha	-0.1950245
-4.700799	inayopitishwa	-0.1941143
-4.700799	inayoruhusu	-0.1954227
-4.700799	inayosababisha	-0.1949206
-4.700799	inayosalia	-0.1955525
-4.399769	inayoshika	-0.2168578
-4.399769	inayoshikwa	-0.1989915
-4.700799	inayoshughulika	-0.177115
-4.700799	inayosikika	-0.1919654
-4.700799	inayosumbua	-0.1952929
-4.399769	inayotakiwa	-0.1770698
-4.700799	inayotangaza	-0.1941577
-4.700799	inayotembelewa	-0.177115
-4.700799	inayoteneneza	-0.1950245
-4.399769	inayotoka	-0.2159908
-4.399769	inayotokea	-0.1938799
-4.399769	inayotukinga	-0.2174204
-4.223678	inayotumia	-0.1948686
-4.700799	inayotumika	-0.177115
-3.922648	inayotumiwa	-0.3470939
-4.700799	inayotunza	-0.194886
-4.700799	inayounganisha	-0.1951285
-4.700799	inayovutika	-0.1876444
-4.399769	inayowaka	-0.1769705
-4.098739	inayoweza	-0.19544
-4.700799	inayozungumzwa	-0.1904015
-4.700799	inayvoonekana	-0.1939841
-3.700799	inazidi	-0.412147
-4.223678	inazimika	-0.1759567
-4.223678	inazingatiwa	-0.2050115
-4.700799	inazuia	-0.1953622
-4.700799	inazungukwa	-0.177115
-4.700799	inc	-0.1955525
-4.223678	inchi	-0.1915491
-4.399769	including	-0.1954919
-4.700799	income	-0.1950765
-3.855701	india	-0.2812256
-3.855701	indicus	-0.2440602
-4.700799	indigirka	-0.1653513
-4.700799	indira	-0.1955438
-4.399769	indonesia	-0.1872279
-4.399769	inductor	-0.1872279
-4.700799	industries	-0.1653513
-4.399769	infinity	-0.1872279
-4.700799	influenza	-0.1653513
-4.700799	informality	-0.1950765
-3.797709	information	-0.2273572
-4.700799	informative	-0.1955092
-4.399769	infrared	-0.2174031
-4.399769	infraredi	-0.2173685
-4.399769	infusoria	-0.1989915
-4.223678	ing	-0.1653328
-4.700799	ingali	-0.1955179
-3.269435	ingawa	-0.2616527
-4.700799	ingawaje	-0.1955525
-4.700799	ingeitwa	-0.194626
-4.700799	ingekuwa	-0.1955352
-4.399769	ingeruhusu	-0.2173858
-4.399769	ingeweza	-0.2172906
-4.700799	ingia	-0.1955525
-4.700799	ingiaje	-0.1952064
-4.700799	ingilandi	-0.1955438
-4.700799	ingilisi	-0.1904015
-4.098739	ingine	-0.1759757
-4.700799	ingles	-0.195466
-4.700799	inia	-0.1955525
-4.700799	injilisi	-0.1955179
-3.922648	injini	-0.1677669
-4.700799	injinitreni	-0.1955525
-4.700799	inlportalinlgov	-0.1955438
-4.399769	innocent	-0.1955179
-4.700799	innovations	-0.1955525
-4.700799	innsbruck	-0.1653513
-4.399769	inorganic	-0.2173771
-4.700799	insafirishwa	-0.1953189
-4.223678	institute	-0.2099099
-4.700799	institution	-0.19544
-4.399769	insulini	-0.1932369
-4.399769	intelligence	-0.1872279
-4.700799	intentions	-0.1955525
-4.700799	inter	-0.1955438
-4.098739	interaction	-0.4420084
-4.700799	interior	-0.1653513
-4.700799	internal	-0.1955525
-3.746556	international	-0.1953449
-4.399769	internationale	-0.2174204
-4.399769	internet	-0.1953795
-4.399769	intestine	-0.1872279
-4.700799	intonation	-0.1954746
-4.700799	intore	-0.195466
-4.700799	introductory	-0.1955438
-4.098739	ioni	-0.1715107
-4.700799	ipatikane	-0.1951198
-4.700799	ipewe	-0.1955438
-4.223678	ipo	-0.1613551
-4.700799	irak	-0.1653513
-4.700799	iraki	-0.1880494
-4.700799	iran	-0.193002
-4.700799	irani	-0.177115
-4.700799	iraq	-0.1653513
-4.001829	ireland	-0.2686465
-4.700799	iridi	-0.1653513
-4.700799	irtysh	-0.1653513
-4.700799	irvington	-0.1955438
-4.700799	isaac	-0.1955525
-3.855701	isbn	-0.5141606
-4.700799	isha	-0.1955525
-4.700799	ishara	-0.1955179
-4.223678	ishirini	-0.1769254
-4.700799	isiokomaa	-0.1694306
-4.700799	isiosita	-0.1694306
-3.554671	isipokuwa	-0.2555656
-4.700799	isiteteleke	-0.177115
-4.700799	isiyo	-0.177115
-4.700799	isiyokomaa	-0.1694306
-4.399769	island	-0.1771059
-4.700799	isle	-0.1948513
-4.700799	israel	-0.1653513
-4.223678	israeli	-0.3564215
-4.700799	issue	-0.1955265
-4.399769	isuja	-0.2173339
-4.399769	it	-0.165342
-4.700799	itaanzisha	-0.1948773
-4.700799	itachukua	-0.1955438
-4.399769	itaenda	-0.2095209
-4.399769	itafutwa	-0.1647853
-4.700799	itaitwa	-0.1955352
-4.399769	itakayokuwa	-0.2173771
-4.700799	itakayoleta	-0.1953102
-4.223678	itakuwa	-0.1875651
-4.700799	itakuwemo	-0.195241
-3.445526	italia	-0.4483627
-4.700799	italikivya	-0.1948773
-4.399769	italy	-0.2173771
-4.700799	itapatikana	-0.1653513
-4.700799	itapita	-0.1941143
-4.700799	itasaidiya	-0.1954746
-4.700799	itategemea	-0.1939233
-4.700799	itazamika	-0.1941577
-4.700799	itc	-0.1954833
-4.700799	itikadi	-0.19544
-4.700799	itu	-0.1954573
-4.700799	iuanganishwe	-0.177115
-4.700799	iv	-0.1815683
-4.700799	ivar	-0.1955525
-4.700799	ivoire	-0.1653513
-4.700799	ivory	-0.1955525
-4.223678	iwe	-0.1693203
-4.700799	iwezeshayo	-0.1948253
-4.223678	ix	-0.1600068
-4.700799	iyasu	-0.1955525
-4.700799	izi	-0.1954227
-4.700799	izo	-0.1955525
-3.922648	j	-0.2020737
-4.700799	jacinto	-0.1955525
-4.098739	jack	-0.1955265
-4.700799	jackie	-0.1955525
-4.223678	jackson	-0.1653328
-4.399769	jacob	-0.1955438
-4.700799	jacobson	-0.1954141
-4.098739	jadi	-0.1873801
-4.399769	jahazi	-0.1653328
-4.399769	jahiz	-0.212278
-4.223678	jakaya	-0.3865881
-4.700799	jalisco	-0.1653513
-4.700799	jamaa	-0.1653513
-4.399769	jamaika	-0.1872279
-3.855701	jambo	-0.2038249
-4.700799	jameel	-0.1955006
-3.700799	james	-0.1997367
-3.269435	jamhuri	-1.299314
-4.700799	jamie	-0.1955525
-2.968405	jamii	-0.1102809
-4.399769	jamuhuri	-0.1913071
-4.399769	jan	-0.2174204
-4.399769	jana	-0.1771059
-4.700799	janeiro	-0.1955179
-4.700799	janet	-0.1955525
-4.223678	jangwa	-0.1607276
-4.700799	jangwani	-0.193002
-3.358376	januari	-0.1837878
-4.399769	japan	-0.1875475
-3.37858	japani	-0.2698867
-4.700799	jaribio	-0.1953795
-4.399769	jaribu	-0.1876268
-4.001829	jarida	-0.3973012
-4.700799	jasi	-0.1949726
-4.700799	jawaharlal	-0.1955525
-4.700799	jawara	-0.1952756
-4.700799	jawziyyah	-0.1955525
-4.223678	jazz	-0.1942704
-3.797709	jean	-0.4630611
-4.399769	jedwali	-0.1694214
-4.700799	jefferson	-0.1653513
-4.700799	jeffrey	-0.1955525
-4.700799	jelinek	-0.1946173
-3.659406	jenasi	-0.2296429
-4.700799	jenereta	-0.1653513
-4.098739	jenetiki	-0.1912703
-3.700799	jengo	-0.1827369
-3.269435	jeni	-0.1305123
-4.700799	jenner	-0.1955179
-4.700799	jenomia	-0.177115
-3.746556	jenomu	-0.3915121
-4.700799	jensen	-0.1946173
-4.001829	jersey	-0.1452516
-3.586855	jeshi	-0.2182612
-4.700799	jewel	-0.1955179
-4.700799	jiandikishe	-0.1876444
-4.700799	jiang	-0.193002
-4.700799	jibran	-0.1815683
-4.700799	jibuti	-0.1653513
-3.554671	jiji	-0.2051968
-4.223678	jijini	-0.2098493
-3.922648	jiko	-0.202625
-4.399769	jikoni	-0.1614955
-4.700799	jill	-0.1955525
-3.422045	jimbo	-0.642101
-4.399769	jimboni	-0.2099259
-4.399769	jimi	-0.2174204
-4.700799	jimmy	-0.1955438
-4.700799	jin	-0.1653513
-2.843466	jina	-0.4838612
-4.700799	jingine	-0.1876444
-4.399769	jinja	-0.1572934
-4.700799	jinnah	-0.1955179
-3.182285	jinsi	-0.1940941
-4.399769	jinsia	-0.1989915
-4.700799	jintao	-0.1876444
-3.797709	jiografia	-0.1359945
-3.700799	jiolojia	-0.1321275
-4.700799	jiometri	-0.1653513
-4.700799	jiometria	-0.1653513
-4.700799	jioni	-0.1951458
-4.098739	jipya	-0.3267192
-3.922648	jirani	-0.1576711
-4.001829	jitihada	-0.1984861
-4.098739	jitu	-0.4671549
-3.855701	jiwe	-0.1970477
-4.700799	joan	-0.1955525
-4.700799	joannes	-0.1955525
-4.223678	joe	-0.1955352
-4.399769	johann	-0.1955179
-4.098739	johannes	-0.2063271
-4.700799	johannesburg	-0.1955438
-3.320588	john	-0.1666504
-4.700799	johns	-0.1653513
-4.399769	johnson	-0.1650452
-4.700799	jolie	-0.1653513
-4.700799	jomo	-0.1955352
-4.700799	jonathan	-0.1955525
-4.098739	jones	-0.1759849
-4.700799	jopek	-0.1954919
-4.399769	jordan	-0.1872279
-4.700799	jorge	-0.1955438
-3.855701	joseph	-0.201501
-4.700799	josiah	-0.195466
-4.399769	josip	-0.2174204
-4.700799	josé	-0.1955525
-4.700799	joti	-0.1942705
-2.881255	joto	-0.2493953
-4.399769	jouhaux	-0.2173685
-4.700799	joule	-0.1653513
-4.399769	journal	-0.1948426
-4.700799	journalism	-0.1653513
-4.700799	journalists	-0.1955525
-4.399769	joyce	-0.1651937
-4.700799	jozef	-0.1955525
-4.700799	jpg	-0.1876444
-4.399769	jr	-0.1653328
-2.692199	jua	-0.4971253
-4.399769	juan	-0.1955438
-4.700799	jubilation	-0.1955525
-4.700799	judkins	-0.1955525
-4.700799	judo	-0.1653513
-4.700799	jugoslavija	-0.177115
-4.098739	juhudi	-0.4671549
-4.700799	juice	-0.177115
-4.399769	jukumu	-0.1903753
-3.554671	julai	-0.16243
-4.399769	juli	-0.1455456
-4.700799	julian	-0.1955525
-4.700799	juliasi	-0.1942618
-4.098739	julius	-0.2062146
-4.700799	july	-0.1653513
-3.855701	jumba	-0.2235189
-3.195649	jumla	-0.183037
-4.399769	jumuia	-0.1599209
-3.797709	jumuiya	-0.4312536
-4.700799	june	-0.1653513
-4.700799	jungle	-0.1955525
-3.524708	juni	-0.1644255
-3.922648	jupiter	-0.1514233
-4.700799	justice	-0.1653513
-2.700799	juu	-0.6671418
-4.399769	język	-0.2174031
-4.399769	ka	-0.1950852
-4.399769	kabaka	-0.1951977
-4.700799	kabale	-0.1653513
-4.098739	kabila	-0.1902615
-3.156731	kabisa	-0.2292838
-3.302859	kabla	-0.8487458
-3.358376	kaboni	-0.241666
-4.223678	kabonia	-0.1878998
-4.700799	kaburi	-0.1955525
-4.700799	kadenge	-0.1653513
-4.399769	kadha	-0.1815593
-3.088015	kadhaa	-0.193583
-3.700799	kadhalika	-0.3753821
-3.922648	kadiri	-0.3328519
-4.700799	kadirio	-0.1918608
-4.098739	kadri	-0.1693571
-4.700799	kafka	-0.1653513
-4.700799	kagera	-0.1934369
-4.700799	kahawa	-0.1944613
-4.098739	kahawia	-0.1874594
-4.700799	kahlo	-0.1955265
-4.399769	kai	-0.2174204
-4.700799	kaika	-0.1955525
-4.098739	kaimu	-0.4719327
-3.797709	kaisari	-0.3013696
-4.700799	kakamega	-0.1653513
-3.209437	kale	-0.1864178
-4.223678	kalenda	-0.1832667
-3.554671	kali	-0.1862589
-4.700799	kalibu	-0.1694306
-4.700799	kalkutta	-0.1954573
-4.700799	kalsi	-0.177115
-4.700799	kam	-0.1955525
-2.083799	kama	-0.2926529
-4.098739	kamati	-0.1910222
-4.399769	kamba	-0.1754059
-4.700799	kambarage	-0.1955352
-4.399769	kambo	-0.1455456
-4.700799	kamboja	-0.1653513
-4.700799	kamerun	-0.1653513
-3.37858	kamili	-0.1361205
-4.700799	kamilika	-0.1954314
-4.098739	kampala	-0.3001814
-3.922648	kampaundi	-0.6392032
-4.399769	kampuni	-0.1913071
-4.399769	kamukunji	-0.2173858
-3.253641	kamusi	-0.7811682
-4.700799	kamwe	-0.1954833
-3.746556	kanada	-0.1952472
-3.659406	kanda	-0.2412631
-4.001829	kandanda	-0.1436836
-4.700799	kandinsky	-0.1653513
-3.554671	kando	-0.608857
-4.700799	kangundo	-0.1653513
-4.098739	kani	-0.1450504
-4.700799	kanidi	-0.177115
-3.659406	kanieneo	-0.2467134
-3.797709	kanisa	-0.3151985
-4.700799	kanisani	-0.1955525
-4.700799	kansela	-0.1815683
-3.253641	kanuni	-0.6347473
-4.700799	kapasita	-0.1653513
-4.700799	kapchorwa	-0.1653513
-4.700799	kappelhoff	-0.1653513
-4.700799	kar	-0.1955525
-4.700799	karachi	-0.1955179
-4.399769	karatasi	-0.1765189
-4.700799	karate	-0.1653513
-4.700799	kardinali	-0.1955525
-4.223678	karibi	-0.3564215
-4.700799	karibia	-0.1955006
-3.038041	karibu	-0.3433914
-4.098739	karibuni	-0.2055392
-4.700799	karimojong	-0.1653513
-4.098739	karl	-0.2062925
-2.922648	karne	-0.8152097
-4.700799	karume	-0.1955179
-4.700799	kasamwa	-0.1653513
-4.700799	kasbah	-0.1955525
-4.700799	kashikilia	-0.1955525
-3.144496	kasi	-0.721592
-2.937371	kaskazini	-0.278727
-3.496679	kasoko	-0.3844612
-4.700799	kasokoarizonamarekani	-0.1653513
-4.700799	kasoro	-0.1955525
-4.399769	kata	-0.1940969
-4.700799	kategoria	-0.1948253
-4.700799	kateri	-0.1955525
-2.516108	kati	-1.191053
-3.659406	katiba	-0.2906036
-3.746556	katibu	-1.135382
-1.927744	katika	-0.3288226
-3.797709	katikati	-0.4355959
-4.001829	katoliki	-0.2629488
-4.700799	katrina	-0.1955525
-4.700799	kaunda	-0.1955006
-4.700799	kauri	-0.1950245
-3.586855	kavu	-0.1872194
-2.968405	kawaida	-0.2264606
-3.922648	kaya	-0.2813882
-4.700799	kayero	-0.1653513
-4.223678	kazakhstan	-0.1651658
-2.77138	kazi	-0.3396587
-4.700799	kemal	-0.1955525
-3.238401	kemia	-0.7273642
-3.797709	kemikali	-0.1756233
-4.700799	kemotrofu	-0.1939841
-4.700799	kengen	-0.1653513
-4.399769	kennedy	-0.1652586
-4.223678	kenneth	-0.1955265
-2.952611	kenya	-0.3888497
-4.223678	kenyatta	-0.179293
-4.700799	keroche	-0.1653513
-4.700799	kerouac	-0.1653513
-4.700799	kertesz	-0.1946173
-4.700799	ketepa	-0.1653513
-4.700799	keynes	-0.1653513
-4.223678	kg	-0.1557794
-4.700799	khalil	-0.1955525
-4.700799	khartoum	-0.1955179
-4.700799	khaury	-0.1653513
-4.700799	khayyam	-0.1955525
-4.700799	kheri	-0.1653513
-4.399769	khorana	-0.2173079
-4.700799	khrushchev	-0.1653513
-4.098739	ki	-0.4721836
-4.700799	kiafrika	-0.1943832
-4.700799	kiafya	-0.1955438
-4.700799	kiaisi	-0.1932891
-4.001829	kiajemi	-0.3108246
-4.399769	kiambishi	-0.2174204
-4.700799	kiamhari	-0.1955006
-4.700799	kianglikana	-0.1653513
-4.700799	kiango	-0.1932891
-3.019558	kiarabu	-0.2573247
-4.700799	kiaramu	-0.177115
-4.700799	kiashuri	-0.177115
-3.182285	kiasi	-0.4685526
-4.399769	kiasia	-0.1694214
-3.659406	kiasili	-0.1761642
-4.700799	kibabili	-0.177115
-4.700799	kibaiolojia	-0.1815683
-4.223678	kibali	-0.3843593
-3.554671	kibantu	-0.2325606
-4.223678	kibao	-0.1677832
-4.700799	kibaptist	-0.1653513
-4.098739	kibaptisti	-0.2056258
-4.700799	kibelgiji	-0.1939841
-4.700799	kibengali	-0.1954573
-3.746556	kibete	-0.2204406
-4.700799	kibeti	-0.1653513
-4.223678	kibiashara	-0.1901932
-4.001829	kibinadamu	-0.1435807
-4.700799	kibinafsi	-0.193002
-3.496679	kibiolojia	-0.107373
-4.700799	kibonye	-0.1953795
-4.700799	kibos	-0.1653513
-4.700799	kibotania	-0.177115
-4.700799	kibotaniki	-0.1955525
-4.700799	kibunge	-0.1952756
-4.700799	kibwagizo	-0.1932891
-3.922648	kichina	-0.1115422
-3.855701	kichwa	-0.1501191
-3.922648	kidemokrasia	-0.6181359
-3.855701	kidini	-0.1687986
-3.554671	kidogo	-0.188964
-4.700799	kidunia	-0.1951285
-4.399769	kiebrania	-0.1693846
-4.399769	kielelezo	-0.2168837
-4.700799	kieneo	-0.193002
-4.700799	kienyeji	-0.193002
-4.399769	kifaa	-0.1952323
-4.098739	kifalme	-0.2020764
-4.399769	kifalsafa	-0.2123743
-3.659406	kifaransa	-0.2072882
-4.223678	kifedha	-0.1875739
-4.700799	kifinisia	-0.177115
-4.001829	kifizikia	-0.1677002
-4.399769	kifo	-0.2151656
-4.700799	kifunguzi	-0.1932891
-3.621618	kifupi	-0.232134
-4.700799	kifupisho	-0.1932891
-4.700799	kigaeli	-0.1955525
-4.399769	kigeni	-0.1989915
-4.399769	kigermanik	-0.1955352
-4.700799	kigingi	-0.1932891
-3.554671	kigiriki	-0.1968845
-4.700799	kigoma	-0.1953795
-4.700799	kihalari	-0.177115
-4.700799	kiharibifu	-0.1950679
-4.700799	kihesabu	-0.1694306
-4.001829	kihindi	-0.382546
-3.855701	kihispania	-0.1573868
-4.098739	kihistoria	-0.1567358
-4.700799	kihungaria	-0.1939928
-3.700799	kiing	-0.2140128
-3.098739	kiingereza	-0.2050452
-4.700799	kiingerezabrittany	-0.195466
-3.700799	kiini	-0.3921889
-4.700799	kiinitete	-0.1939841
-4.098739	kiislamu	-0.1965204
-4.001829	kiitalia	-0.1609994
-4.223678	kiitaliano	-0.2090612
-4.700799	kiito	-0.1955438
-4.399769	kiitwacho	-0.1952237
-4.223678	kijamii	-0.1866744
-4.399769	kijana	-0.1815236
-4.700799	kijani	-0.1954919
-4.700799	kijapani	-0.1880494
-4.399769	kijarabati	-0.2174204
-4.399769	kijenzi	-0.2170483
-4.700799	kijer	-0.1955525
-4.001829	kijerumani	-0.143532
-3.922648	kijeshi	-0.1441652
-4.700799	kiji	-0.1955265
-4.001829	kijiji	-0.2005494
-4.098739	kijijini	-0.1755209
-4.700799	kijimbo	-0.1876444
-4.700799	kijina	-0.1955092
-4.098739	kijiografia	-0.1836166
-4.399769	kijiolojia	-0.1949466
-4.700799	kijisanamu	-0.1955525
-4.700799	kijisehemu	-0.1932891
-4.098739	kikabila	-0.20382
-4.399769	kikafa	-0.216953
-4.700799	kikali	-0.1653513
-4.700799	kikamilifu	-0.1955525
-4.700799	kikanda	-0.1653513
-4.700799	kikanza	-0.1653513
-4.700799	kikapambana	-0.177115
-4.700799	kikatiba	-0.1954573
-4.700799	kikatoliki	-0.193002
-4.700799	kikazi	-0.1904015
-4.001829	kike	-0.267893
-4.700799	kikelti	-0.177115
-3.47035	kikemia	-0.1471628
-4.700799	kikikaribia	-0.1954487
-4.700799	kikilikaribia	-0.1952496
-3.746556	kikingaradi	-0.4148938
-4.700799	kikitumika	-0.1955179
-4.700799	kikiwa	-0.1954314
-4.700799	kikiwaka	-0.1694306
-4.700799	kikoloni	-0.1953449
-4.700799	kikoministi	-0.1955179
-3.922648	kikomunisti	-0.1488096
-4.700799	kikosi	-0.1932891
-4.700799	kikroatia	-0.1955525
-3.47035	kikubwa	-0.22968
-4.700799	kikundi	-0.19544
-4.399769	kikurdi	-0.2173944
-3.621618	kikuu	-0.9624088
-4.399769	kikwazo	-0.2174031
-4.001829	kikwete	-0.2128609
-4.700799	kikyrili	-0.1940101
-2.732316	kila	-0.3935996
-4.001829	kilabu	-0.7717339
-4.399769	kilat	-0.1653328
-3.922648	kilatini	-0.1652493
-3.700799	kile	-0.2002702
-4.700799	kilekile	-0.1932891
-4.223678	kilele	-0.1958419
-4.700799	kilema	-0.1653513
-4.399769	kilianguka	-0.212278
-4.700799	kilianza	-0.1953881
-4.700799	kilianzishwa	-0.1934369
-4.700799	kilichapishwa	-0.1953016
-4.700799	kilichoandikwa	-0.1941143
-4.700799	kilichoingia	-0.1904015
-4.399769	kilichojulikana	-0.213842
-4.399769	kilichokuwa	-0.1771059
-4.700799	kilichokwenda	-0.1876444
-4.700799	kilichomo	-0.1904015
-4.700799	kilichopatikana	-0.1876444
-4.700799	kilichopo	-0.1952843
-4.700799	kilichorushwa	-0.177115
-4.700799	kilichowekwa	-0.1946173
-4.700799	kilichoyeyuka	-0.1904015
-4.700799	kilielezwa	-0.1941577
-4.700799	kilienea	-0.1955265
-4.700799	kilifanywa	-0.195466
-4.700799	kilifuatwa	-0.177115
-4.700799	kilijenga	-0.1954487
-4.700799	kilikotekea	-0.1952756
-4.399769	kilikua	-0.2167018
-3.621618	kilikuwa	-0.1783794
-4.223678	kilima	-0.2077416
-4.223678	kilimanjaro	-0.1454679
-3.797709	kilimo	-0.1902116
-4.700799	kiliona	-0.1954573
-4.700799	kilipelekea	-0.1955438
-4.700799	kilitokea	-0.1653513
-4.700799	kiliwavutiwa	-0.19544
-4.399769	kilizaliwa	-0.2173858
-3.554671	kilogramu	-0.1354876
-3.855701	kilometa	-0.4877608
-2.929947	kilomita	-0.260437
-4.700799	kilwa	-0.1955438
-4.700799	kimaadili	-0.195267
-4.700799	kimaandishi	-0.177115
-4.700799	kimaeneo	-0.1694306
-4.700799	kimaghribi	-0.177115
-4.700799	kimajira	-0.1919654
-4.223678	kimakanika	-0.1797476
-4.700799	kimakonde	-0.1955525
-4.700799	kimamlaka	-0.177115
-4.700799	kimanzi	-0.1653513
-4.700799	kimapokeo	-0.1951025
-4.399769	kimarekani	-0.1953189
-4.700799	kimasri	-0.193002
-3.144496	kimataifa	-0.4270135
-4.700799	kimatukio	-0.1955006
-4.399769	kimaumbile	-0.1989915
-4.399769	kimeanguka	-0.2158606
-4.700799	kimeanzishwa	-0.1953622
-4.399769	kimeenea	-0.2161383
-4.700799	kimefika	-0.177115
-3.855701	kimekuwa	-0.5307323
-4.700799	kimesimamisha	-0.1948253
-4.700799	kimetali	-0.1955006
-4.700799	kimetangaza	-0.195267
-4.700799	kimetangazwa	-0.1941577
-4.700799	kimifumo	-0.1954487
-4.700799	kimila	-0.1653513
-4.700799	kimiminika	-0.1942271
-4.700799	kimisri	-0.1955525
-3.496679	kimo	-0.5242204
-4.700799	kimofolojia	-0.1955525
-4.001829	kimoja	-0.1707406
-4.700799	kimojawapo	-0.1880494
-3.37858	kimondo	-0.2296976
-3.855701	kimsingi	-0.1467849
-4.700799	kimuziki	-0.1955179
-4.098739	kimwili	-0.140614
-4.700799	kimyakimya	-0.1952323
-3.524708	kina	-0.2321797
-4.399769	kinachobaki	-0.2099259
-4.700799	kinachochomwa	-0.1653513
-4.700799	kinachochunguzwaa	-0.1876444
-4.700799	kinachofungiwa	-0.1946953
-4.700799	kinachohesabiwa	-0.1876444
-4.700799	kinachohusika	-0.177115
-4.700799	kinachohusisha	-0.1955438
-4.700799	kinachoitwa	-0.1955438
-4.399769	kinachojaribu	-0.2173858
-4.700799	kinachokua	-0.194756
-4.700799	kinachopigwa	-0.1954833
-4.700799	kinachopimika	-0.1904015
-4.399769	kinachopimwa	-0.1872279
-4.700799	kinachotokea	-0.1880494
-4.700799	kinachotolewa	-0.1955525
-4.399769	kinachotumiwa	-0.2173079
-4.399769	kinachotuzingira	-0.2173339
-4.700799	kinachowaka	-0.1880494
-4.700799	kinaelekea	-0.1955525
-4.700799	kinaendelea	-0.1876444
-4.223678	kinafanana	-0.3681852
-4.700799	kinafanywa	-0.177115
-4.700799	kinagonga	-0.1953189
-4.700799	kinaingia	-0.1904015
-4.700799	kinaitwa	-0.1955352
-4.399769	kinakadiriwa	-0.2160342
-4.700799	kinakuja	-0.1941577
-4.700799	kinamwonesha	-0.1955352
-4.223678	kinanda	-0.1624113
-4.700799	kinapashwa	-0.1949206
-4.700799	kinasababishwa	-0.177115
-4.700799	kinasaidia	-0.195466
-4.700799	kinasha	-0.195466
-4.700799	kinashughulika	-0.1954141
-4.700799	kinastahili	-0.1955006
-4.700799	kinastawi	-0.195466
-4.700799	kinatengenezwa	-0.1876444
-4.700799	kinatosha	-0.1954919
-3.855701	kinatumika	-0.2382527
-4.700799	kinatumiwa	-0.177115
-4.700799	kinavaho	-0.1653513
-4.700799	kinavutwa	-0.1955179
-4.700799	kinaweza	-0.1955352
-4.399769	kinawezekana	-0.212278
-4.399769	kinazidi	-0.1952496
-4.700799	kinazungumzwa	-0.177115
-4.700799	kinene	-0.1955179
-3.797709	king	-0.170282
-3.797709	kinga	-0.1753783
-4.700799	kingamaradhi	-0.1653513
-4.098739	kingdom	-0.3221943
-4.399769	kingine	-0.1928193
-4.700799	kingsgate	-0.19544
-4.399769	kingwana	-0.1872279
-4.399769	kinshasa	-0.1954833
-4.399769	kinyang	-0.2174204
-4.700799	kinyarwanda	-0.1955352
-4.700799	kinyezi	-0.1904978
-4.700799	kinyukilia	-0.194652
-4.098739	kinyuklia	-0.1751493
-3.621618	kinyume	-0.3288543
-4.700799	kinywe	-0.1955525
-3.797709	kiongozi	-0.3122795
-4.700799	kioo	-0.177115
-3.621618	kiowevu	-0.160336
-4.700799	kipaji	-0.1932891
-4.001829	kipande	-0.2973979
-4.700799	kipekee	-0.1653513
-3.554671	kipenyo	-0.5591917
-4.223678	kipi	-0.1945826
-3.182285	kipimo	-0.7625268
-3.238401	kipindi	-0.6496398
-3.496679	kipitishi	-0.3098239
-4.223678	kipo	-0.2084193
-4.700799	kiprotestanti	-0.177115
-4.700799	kipya	-0.1954141
-4.399769	kirahisi	-0.1898936
-4.700799	kirefu	-0.1953102
-4.001829	kireno	-0.2498708
-4.700799	kirgizistan	-0.1653513
-4.399769	kirkwood	-0.165342
-4.399769	kiroma	-0.1732533
-4.399769	kirusi	-0.1771059
-4.700799	kisagwa	-0.1955438
-4.001829	kisanii	-0.1516746
-3.269435	kisasa	-0.1521967
-4.700799	kisasayansi	-0.1955438
-4.700799	kisasili	-0.1951631
-4.700799	kisauni	-0.1653513
-3.182285	kisayansi	-0.2450363
-4.700799	kisehemu	-0.1955265
-4.399769	kisemiti	-0.1939928
-4.223678	kiserikali	-0.1892973
-4.223678	kisha	-0.1953102
-4.700799	kishada	-0.1946867
-4.700799	kishami	-0.193002
-4.399769	kisheria	-0.194175
-3.922648	kisiasa	-0.1439221
-4.700799	kisicholingana	-0.1904015
-4.700799	kisikuu	-0.1955525
-3.524708	kisiwa	-0.2670063
-4.399769	kisiwani	-0.1688515
-4.700799	kislovenia	-0.177115
-3.746556	kisoshalisti	-1.123535
-4.001829	kisovyeti	-0.1631167
-3.797709	kisukuku	-0.1322014
-4.700799	kisukuku‎	-0.1953276
-3.855701	kisukuu	-0.1559027
-4.223678	kisumaku	-0.3564215
-4.399769	kisumu	-0.1639303
-2.732316	kiswahili	-0.3057875
-4.223678	kitaalamu	-0.1650267
-4.399769	kitaaluma	-0.1815593
-3.922648	kitabu	-0.2095204
-4.700799	kitadhibiti	-0.1952323
-3.746556	kitaifa	-0.1128214
-4.700799	kitakuwa	-0.1939928
-4.700799	kitakyushu	-0.1955525
-4.700799	kitangulizi	-0.1694306
-4.700799	kitaraab	-0.1955525
-4.700799	kitarafa	-0.1653513
-4.700799	kitartari	-0.1955525
-4.399769	kiteknolojia	-0.1498142
-4.098739	kitendo	-0.1953968
-3.797709	kitengo	-0.3925505
-4.700799	kithil	-0.1954573
-4.001829	kiti	-0.1941795
-4.700799	kitoto	-0.1955525
-3.855701	kitovu	-0.4985327
-4.700799	kitts	-0.177115
-3.554671	kitu	-0.2013923
-4.700799	kitui	-0.1653513
-4.700799	kitumikacho	-0.1954314
-4.700799	kitunguu	-0.195267
-4.700799	kituruki	-0.1953622
-3.922648	kiuchumi	-0.1483462
-4.098739	kiumbe	-0.2060934
-3.797709	kiumbehai	-0.1736447
-4.700799	kiume	-0.1955352
-3.855701	kiungo	-0.1647339
-4.700799	kiunzi	-0.177115
-4.700799	kiurdu	-0.1955438
-4.098739	kiutamaduni	-0.2996525
-4.223678	kiutathmini	-0.2094165
-4.223678	kiutawala	-0.1793922
-4.399769	kivolkeno	-0.1929846
-4.700799	kivuli	-0.1946867
-4.700799	kiwakati	-0.1951198
-4.001829	kiwanda	-0.7717339
-4.223678	kiwandani	-0.1653235
-3.554671	kiwango	-0.7364868
-4.700799	kiwangokikubwa	-0.1932891
-4.700799	kiwix	-0.1653513
-4.700799	kiyemeni	-0.193002
-4.098739	kizio	-0.2039592
-4.399769	kizoolojia	-0.1953102
-4.399769	kizuizi	-0.2173858
-4.700799	kizungu	-0.1955525
-4.700799	kizuri	-0.1942618
-3.586855	kk	-0.1695563
-3.855701	klabu	-0.182604
-4.399769	kladistiki	-0.1568587
-4.700799	klasiki	-0.1946867
-2.993229	km	-0.4912481
-4.700799	kn	-0.1955525
-4.700799	knighthood	-0.1694306
-4.700799	knollys	-0.1955179
-4.700799	knowledge	-0.1653513
-4.399769	kobe	-0.1955438
-4.700799	kodi	-0.1694306
-4.223678	kodoni	-0.1370487
-4.700799	kofi	-0.1955525
-4.700799	kofia	-0.1694306
-4.700799	kohl	-0.1953016
-4.399769	kolbe	-0.1653235
-4.700799	kolini	-0.1904978
-4.700799	kolkata	-0.1653513
-4.700799	kolmogorov	-0.1653513
-4.399769	kolombia	-0.1648782
-4.399769	koloni	-0.1913071
